digraph Tree {
node [shape=box, style="filled", color="black", fontname="helvetica"] ;
edge [fontname="helvetica"] ;
0 [label=<pixel_350 &le; 0.516<br/>gini = 0.9<br/>samples = 60000<br/>value = [5923, 6742, 5958, 6131, 5842, 5421, 5918, 6265, 5851<br/>5949]<br/>class = 1>, fillcolor="#fffffd"] ;
1 [label=<pixel_568 &le; 0.002<br/>gini = 0.881<br/>samples = 39160<br/>value = [5433.0, 623.0, 4772.0, 1312.0, 5353.0, 3266.0, 4775.0<br/>5773.0, 3081.0, 4772.0]<br/>class = 7>, fillcolor="#fefdff"] ;
0 -> 1 [labeldistance=2.5, labelangle=45, headlabel="True"] ;
2 [label=<pixel_430 &le; 0.002<br/>gini = 0.839<br/>samples = 24084<br/>value = [697.0, 414.0, 904.0, 847.0, 5133.0, 1668.0, 2771.0<br/>5568.0, 1439.0, 4643.0]<br/>class = 7>, fillcolor="#fdfafe"] ;
1 -> 2 ;
3 [label=<pixel_405 &le; 0.01<br/>gini = 0.705<br/>samples = 9667<br/>value = [258.0, 404.0, 565.0, 424.0, 503.0, 503.0, 315.0, 4974.0<br/>836.0, 885.0]<br/>class = 7>, fillcolor="#d4a3f3"] ;
2 -> 3 ;
4 [label=<pixel_484 &le; 0.002<br/>gini = 0.475<br/>samples = 6717<br/>value = [247, 71, 401, 93, 336, 92, 166, 4803, 18, 490]<br/>class = 7>, fillcolor="#bf76ed"] ;
3 -> 4 ;
5 [label=<pixel_153 &le; 0.002<br/>gini = 0.262<br/>samples = 5435<br/>value = [131.0, 71.0, 318.0, 87.0, 14.0, 64.0, 19.0, 4655.0<br/>13.0, 63.0]<br/>class = 7>, fillcolor="#b157e9"] ;
4 -> 5 ;
6 [label=<pixel_594 &le; 0.008<br/>gini = 0.128<br/>samples = 4946<br/>value = [79.0, 51.0, 57.0, 35.0, 13.0, 22.0, 7.0, 4617.0, 7.0<br/>58.0]<br/>class = 7>, fillcolor="#a946e7"] ;
5 -> 6 ;
7 [label=<pixel_156 &le; 0.002<br/>gini = 0.096<br/>samples = 4857<br/>value = [1.0, 49.0, 57.0, 31.0, 13.0, 17.0, 7.0, 4617.0, 7.0<br/>58.0]<br/>class = 7>, fillcolor="#a843e6"] ;
6 -> 7 ;
8 [label=<pixel_554 &le; 0.014<br/>gini = 0.075<br/>samples = 4796<br/>value = [0, 16, 52, 31, 12, 11, 3, 4612, 3, 56]<br/>class = 7>, fillcolor="#a741e6"] ;
7 -> 8 ;
9 [label=<pixel_159 &le; 0.045<br/>gini = 0.063<br/>samples = 4748<br/>value = [0, 16, 29, 28, 12, 7, 3, 4596, 3, 54]<br/>class = 7>, fillcolor="#a63fe6"] ;
8 -> 9 ;
10 [label=<pixel_377 &le; 0.035<br/>gini = 0.058<br/>samples = 4736<br/>value = [0, 6, 29, 28, 11, 6, 3, 4596, 3, 54]<br/>class = 7>, fillcolor="#a63fe6"] ;
9 -> 10 ;
11 [label=<pixel_457 &le; 0.624<br/>gini = 0.05<br/>samples = 4702<br/>value = [0.0, 6.0, 29.0, 27.0, 5.0, 4.0, 3.0, 4582.0, 2.0<br/>44.0]<br/>class = 7>, fillcolor="#a53ee6"] ;
10 -> 11 ;
12 [label=<pixel_511 &le; 0.443<br/>gini = 0.046<br/>samples = 4690<br/>value = [0.0, 6.0, 29.0, 27.0, 5.0, 3.0, 3.0, 4580.0, 2.0<br/>35.0]<br/>class = 7>, fillcolor="#a53ee6"] ;
11 -> 12 ;
13 [label=<pixel_461 &le; 0.884<br/>gini = 0.043<br/>samples = 4683<br/>value = [0, 6, 29, 27, 4, 3, 0, 4580, 2, 32]<br/>class = 7>, fillcolor="#a53de6"] ;
12 -> 13 ;
14 [label=<pixel_639 &le; 0.153<br/>gini = 0.031<br/>samples = 4557<br/>value = [0, 5, 23, 11, 2, 2, 0, 4485, 1, 28]<br/>class = 7>, fillcolor="#a43ce5"] ;
13 -> 14 ;
15 [label=<pixel_151 &le; 0.757<br/>gini = 0.029<br/>samples = 4551<br/>value = [0, 5, 18, 11, 2, 2, 0, 4484, 1, 28]<br/>class = 7>, fillcolor="#a43ce5"] ;
14 -> 15 ;
16 [label=<pixel_609 &le; 0.924<br/>gini = 0.027<br/>samples = 4545<br/>value = [0, 5, 15, 10, 2, 2, 0, 4482, 1, 28]<br/>class = 7>, fillcolor="#a43ce5"] ;
15 -> 16 ;
17 [label=<pixel_500 &le; 0.004<br/>gini = 0.027<br/>samples = 4543<br/>value = [0, 5, 13, 10, 2, 2, 0, 4482, 1, 28]<br/>class = 7>, fillcolor="#a43ce5"] ;
16 -> 17 ;
18 [label=<pixel_350 &le; 0.002<br/>gini = 0.025<br/>samples = 4533<br/>value = [0, 5, 9, 10, 2, 2, 0, 4476, 1, 28]<br/>class = 7>, fillcolor="#a43ce5"] ;
17 -> 18 ;
19 [label=<pixel_675 &le; 0.119<br/>gini = 0.013<br/>samples = 4097<br/>value = [0, 3, 8, 7, 1, 0, 0, 4071, 1, 6]<br/>class = 7>, fillcolor="#a43ae5"] ;
18 -> 19 ;
20 [label=<pixel_695 &le; 0.182<br/>gini = 0.012<br/>samples = 4096<br/>value = [0, 3, 8, 6, 1, 0, 0, 4071, 1, 6]<br/>class = 7>, fillcolor="#a43ae5"] ;
19 -> 20 ;
21 [label=<pixel_388 &le; 0.624<br/>gini = 0.012<br/>samples = 4095<br/>value = [0, 3, 7, 6, 1, 0, 0, 4071, 1, 6]<br/>class = 7>, fillcolor="#a43ae5"] ;
20 -> 21 ;
22 [label=<pixel_263 &le; 0.02<br/>gini = 0.011<br/>samples = 4094<br/>value = [0, 3, 6, 6, 1, 0, 0, 4071, 1, 6]<br/>class = 7>, fillcolor="#a43ae5"] ;
21 -> 22 ;
23 [label=<pixel_691 &le; 0.031<br/>gini = 0.09<br/>samples = 344<br/>value = [0, 3, 5, 4, 1, 0, 0, 328, 1, 2]<br/>class = 7>, fillcolor="#a742e6"] ;
22 -> 23 ;
24 [label=<pixel_434 &le; 0.976<br/>gini = 0.064<br/>samples = 335<br/>value = [0, 3, 2, 3, 0, 0, 0, 324, 1, 2]<br/>class = 7>, fillcolor="#a640e6"] ;
23 -> 24 ;
25 [label=<pixel_303 &le; 0.586<br/>gini = 0.053<br/>samples = 332<br/>value = [0, 1, 2, 3, 0, 0, 0, 323, 1, 2]<br/>class = 7>, fillcolor="#a63ee6"] ;
24 -> 25 ;
26 [label=<pixel_608 &le; 0.422<br/>gini = 0.048<br/>samples = 331<br/>value = [0.0, 1.0, 1.0, 3.0, 0.0, 0.0, 0.0, 323.0, 1.0, 2.0]<br/>class = 7>, fillcolor="#a53ee6"] ;
25 -> 26 ;
27 [label=<pixel_255 &le; 0.957<br/>gini = 0.042<br/>samples = 330<br/>value = [0, 1, 0, 3, 0, 0, 0, 323, 1, 2]<br/>class = 7>, fillcolor="#a53de6"] ;
26 -> 27 ;
28 [label=<pixel_578 &le; 0.675<br/>gini = 0.036<br/>samples = 329<br/>value = [0, 1, 0, 2, 0, 0, 0, 323, 1, 2]<br/>class = 7>, fillcolor="#a53de5"] ;
27 -> 28 ;
29 [label=<pixel_256 &le; 0.8<br/>gini = 0.019<br/>samples = 319<br/>value = [0, 1, 0, 1, 0, 0, 0, 316, 0, 1]<br/>class = 7>, fillcolor="#a43be5"] ;
28 -> 29 ;
30 [label=<pixel_265 &le; 0.99<br/>gini = 0.013<br/>samples = 317<br/>value = [0, 0, 0, 1, 0, 0, 0, 315, 0, 1]<br/>class = 7>, fillcolor="#a43ae5"] ;
29 -> 30 ;
31 [label=<pixel_462 &le; 0.998<br/>gini = 0.006<br/>samples = 312<br/>value = [0, 0, 0, 1, 0, 0, 0, 311, 0, 0]<br/>class = 7>, fillcolor="#a33ae5"] ;
30 -> 31 ;
32 [label=<gini = 0.0<br/>samples = 300<br/>value = [0, 0, 0, 0, 0, 0, 0, 300, 0, 0]<br/>class = 7>, fillcolor="#a339e5"] ;
31 -> 32 ;
33 [label=<pixel_602 &le; 0.749<br/>gini = 0.153<br/>samples = 12<br/>value = [0, 0, 0, 1, 0, 0, 0, 11, 0, 0]<br/>class = 7>, fillcolor="#ab4be7"] ;
31 -> 33 ;
34 [label=<gini = 0.0<br/>samples = 11<br/>value = [0, 0, 0, 0, 0, 0, 0, 11, 0, 0]<br/>class = 7>, fillcolor="#a339e5"] ;
33 -> 34 ;
35 [label=<gini = 0.0<br/>samples = 1<br/>value = [0, 0, 0, 1, 0, 0, 0, 0, 0, 0]<br/>class = 3>, fillcolor="#39e55e"] ;
33 -> 35 ;
36 [label=<pixel_437 &le; 0.333<br/>gini = 0.32<br/>samples = 5<br/>value = [0, 0, 0, 0, 0, 0, 0, 4, 0, 1]<br/>class = 7>, fillcolor="#ba6aec"] ;
30 -> 36 ;
37 [label=<gini = 0.0<br/>samples = 1<br/>value = [0, 0, 0, 0, 0, 0, 0, 0, 0, 1]<br/>class = 9>, fillcolor="#e53958"] ;
36 -> 37 ;
38 [label=<gini = 0.0<br/>samples = 4<br/>value = [0, 0, 0, 0, 0, 0, 0, 4, 0, 0]<br/>class = 7>, fillcolor="#a339e5"] ;
36 -> 38 ;
39 [label=<pixel_576 &le; 0.492<br/>gini = 0.5<br/>samples = 2<br/>value = [0, 1, 0, 0, 0, 0, 0, 1, 0, 0]<br/>class = 1>, fillcolor="#ffffff"] ;
29 -> 39 ;
40 [label=<gini = 0.0<br/>samples = 1<br/>value = [0, 1, 0, 0, 0, 0, 0, 0, 0, 0]<br/>class = 1>, fillcolor="#e2e539"] ;
39 -> 40 ;
41 [label=<gini = 0.0<br/>samples = 1<br/>value = [0, 0, 0, 0, 0, 0, 0, 1, 0, 0]<br/>class = 7>, fillcolor="#a339e5"] ;
39 -> 41 ;
42 [label=<pixel_287 &le; 0.424<br/>gini = 0.48<br/>samples = 10<br/>value = [0, 0, 0, 1, 0, 0, 0, 7, 1, 1]<br/>class = 7>, fillcolor="#c27bee"] ;
28 -> 42 ;
43 [label=<pixel_604 &le; 0.247<br/>gini = 0.667<br/>samples = 3<br/>value = [0, 0, 0, 1, 0, 0, 0, 0, 1, 1]<br/>class = 3>, fillcolor="#ffffff"] ;
42 -> 43 ;
44 [label=<gini = 0.0<br/>samples = 1<br/>value = [0, 0, 0, 0, 0, 0, 0, 0, 1, 0]<br/>class = 8>, fillcolor="#e539c0"] ;
43 -> 44 ;
45 [label=<pixel_522 &le; 0.925<br/>gini = 0.5<br/>samples = 2<br/>value = [0, 0, 0, 1, 0, 0, 0, 0, 0, 1]<br/>class = 3>, fillcolor="#ffffff"] ;
43 -> 45 ;
46 [label=<gini = 0.0<br/>samples = 1<br/>value = [0, 0, 0, 1, 0, 0, 0, 0, 0, 0]<br/>class = 3>, fillcolor="#39e55e"] ;
45 -> 46 ;
47 [label=<gini = 0.0<br/>samples = 1<br/>value = [0, 0, 0, 0, 0, 0, 0, 0, 0, 1]<br/>class = 9>, fillcolor="#e53958"] ;
45 -> 47 ;
48 [label=<gini = 0.0<br/>samples = 7<br/>value = [0, 0, 0, 0, 0, 0, 0, 7, 0, 0]<br/>class = 7>, fillcolor="#a339e5"] ;
42 -> 48 ;
49 [label=<gini = 0.0<br/>samples = 1<br/>value = [0, 0, 0, 1, 0, 0, 0, 0, 0, 0]<br/>class = 3>, fillcolor="#39e55e"] ;
27 -> 49 ;
50 [label=<gini = 0.0<br/>samples = 1<br/>value = [0, 0, 1, 0, 0, 0, 0, 0, 0, 0]<br/>class = 2>, fillcolor="#7be539"] ;
26 -> 50 ;
51 [label=<gini = 0.0<br/>samples = 1<br/>value = [0, 0, 1, 0, 0, 0, 0, 0, 0, 0]<br/>class = 2>, fillcolor="#7be539"] ;
25 -> 51 ;
52 [label=<pixel_214 &le; 0.792<br/>gini = 0.444<br/>samples = 3<br/>value = [0, 2, 0, 0, 0, 0, 0, 1, 0, 0]<br/>class = 1>, fillcolor="#f0f29c"] ;
24 -> 52 ;
53 [label=<gini = 0.0<br/>samples = 2<br/>value = [0, 2, 0, 0, 0, 0, 0, 0, 0, 0]<br/>class = 1>, fillcolor="#e2e539"] ;
52 -> 53 ;
54 [label=<gini = 0.0<br/>samples = 1<br/>value = [0, 0, 0, 0, 0, 0, 0, 1, 0, 0]<br/>class = 7>, fillcolor="#a339e5"] ;
52 -> 54 ;
55 [label=<pixel_177 &le; 0.086<br/>gini = 0.667<br/>samples = 9<br/>value = [0, 0, 3, 1, 1, 0, 0, 4, 0, 0]<br/>class = 7>, fillcolor="#f0defb"] ;
23 -> 55 ;
56 [label=<gini = 0.0<br/>samples = 4<br/>value = [0, 0, 0, 0, 0, 0, 0, 4, 0, 0]<br/>class = 7>, fillcolor="#a339e5"] ;
55 -> 56 ;
57 [label=<pixel_463 &le; 0.994<br/>gini = 0.56<br/>samples = 5<br/>value = [0, 0, 3, 1, 1, 0, 0, 0, 0, 0]<br/>class = 2>, fillcolor="#bdf29c"] ;
55 -> 57 ;
58 [label=<pixel_211 &le; 0.025<br/>gini = 0.5<br/>samples = 2<br/>value = [0, 0, 0, 1, 1, 0, 0, 0, 0, 0]<br/>class = 3>, fillcolor="#ffffff"] ;
57 -> 58 ;
59 [label=<gini = 0.0<br/>samples = 1<br/>value = [0, 0, 0, 0, 1, 0, 0, 0, 0, 0]<br/>class = 4>, fillcolor="#39e5c5"] ;
58 -> 59 ;
60 [label=<gini = 0.0<br/>samples = 1<br/>value = [0, 0, 0, 1, 0, 0, 0, 0, 0, 0]<br/>class = 3>, fillcolor="#39e55e"] ;
58 -> 60 ;
61 [label=<gini = 0.0<br/>samples = 3<br/>value = [0, 0, 3, 0, 0, 0, 0, 0, 0, 0]<br/>class = 2>, fillcolor="#7be539"] ;
57 -> 61 ;
62 [label=<pixel_461 &le; 0.808<br/>gini = 0.004<br/>samples = 3750<br/>value = [0, 0, 1, 2, 0, 0, 0, 3743, 0, 4]<br/>class = 7>, fillcolor="#a339e5"] ;
22 -> 62 ;
63 [label=<pixel_184 &le; 0.994<br/>gini = 0.003<br/>samples = 3725<br/>value = [0.0, 0.0, 0.0, 2.0, 0.0, 0.0, 0.0, 3719.0, 0.0, 4.0]<br/>class = 7>, fillcolor="#a339e5"] ;
62 -> 63 ;
64 [label=<pixel_407 &le; 0.998<br/>gini = 0.002<br/>samples = 3652<br/>value = [0, 0, 0, 1, 0, 0, 0, 3648, 0, 3]<br/>class = 7>, fillcolor="#a339e5"] ;
63 -> 64 ;
65 [label=<pixel_496 &le; 0.92<br/>gini = 0.002<br/>samples = 3617<br/>value = [0, 0, 0, 1, 0, 0, 0, 3614, 0, 2]<br/>class = 7>, fillcolor="#a339e5"] ;
64 -> 65 ;
66 [label=<pixel_264 &le; 0.002<br/>gini = 0.001<br/>samples = 3568<br/>value = [0, 0, 0, 0, 0, 0, 0, 3566, 0, 2]<br/>class = 7>, fillcolor="#a339e5"] ;
65 -> 66 ;
67 [label=<pixel_320 &le; 0.957<br/>gini = 0.039<br/>samples = 50<br/>value = [0, 0, 0, 0, 0, 0, 0, 49, 0, 1]<br/>class = 7>, fillcolor="#a53de6"] ;
66 -> 67 ;
68 [label=<gini = 0.0<br/>samples = 49<br/>value = [0, 0, 0, 0, 0, 0, 0, 49, 0, 0]<br/>class = 7>, fillcolor="#a339e5"] ;
67 -> 68 ;
69 [label=<gini = 0.0<br/>samples = 1<br/>value = [0, 0, 0, 0, 0, 0, 0, 0, 0, 1]<br/>class = 9>, fillcolor="#e53958"] ;
67 -> 69 ;
70 [label=<pixel_210 &le; 0.998<br/>gini = 0.001<br/>samples = 3518<br/>value = [0.0, 0.0, 0.0, 0.0, 0.0, 0.0, 0.0, 3517.0, 0.0, 1.0]<br/>class = 7>, fillcolor="#a339e5"] ;
66 -> 70 ;
71 [label=<gini = 0.0<br/>samples = 3382<br/>value = [0, 0, 0, 0, 0, 0, 0, 3382, 0, 0]<br/>class = 7>, fillcolor="#a339e5"] ;
70 -> 71 ;
72 [label=<pixel_239 &le; 0.292<br/>gini = 0.015<br/>samples = 136<br/>value = [0, 0, 0, 0, 0, 0, 0, 135, 0, 1]<br/>class = 7>, fillcolor="#a43ae5"] ;
70 -> 72 ;
73 [label=<gini = 0.0<br/>samples = 1<br/>value = [0, 0, 0, 0, 0, 0, 0, 0, 0, 1]<br/>class = 9>, fillcolor="#e53958"] ;
72 -> 73 ;
74 [label=<gini = 0.0<br/>samples = 135<br/>value = [0, 0, 0, 0, 0, 0, 0, 135, 0, 0]<br/>class = 7>, fillcolor="#a339e5"] ;
72 -> 74 ;
75 [label=<pixel_351 &le; 0.345<br/>gini = 0.04<br/>samples = 49<br/>value = [0.0, 0.0, 0.0, 1.0, 0.0, 0.0, 0.0, 48.0, 0.0, 0.0]<br/>class = 7>, fillcolor="#a53de6"] ;
65 -> 75 ;
76 [label=<gini = 0.0<br/>samples = 48<br/>value = [0, 0, 0, 0, 0, 0, 0, 48, 0, 0]<br/>class = 7>, fillcolor="#a339e5"] ;
75 -> 76 ;
77 [label=<gini = 0.0<br/>samples = 1<br/>value = [0, 0, 0, 1, 0, 0, 0, 0, 0, 0]<br/>class = 3>, fillcolor="#39e55e"] ;
75 -> 77 ;
78 [label=<pixel_353 &le; 0.555<br/>gini = 0.056<br/>samples = 35<br/>value = [0, 0, 0, 0, 0, 0, 0, 34, 0, 1]<br/>class = 7>, fillcolor="#a63fe6"] ;
64 -> 78 ;
79 [label=<gini = 0.0<br/>samples = 1<br/>value = [0, 0, 0, 0, 0, 0, 0, 0, 0, 1]<br/>class = 9>, fillcolor="#e53958"] ;
78 -> 79 ;
80 [label=<gini = 0.0<br/>samples = 34<br/>value = [0, 0, 0, 0, 0, 0, 0, 34, 0, 0]<br/>class = 7>, fillcolor="#a339e5"] ;
78 -> 80 ;
81 [label=<pixel_295 &le; 0.963<br/>gini = 0.054<br/>samples = 73<br/>value = [0, 0, 0, 1, 0, 0, 0, 71, 0, 1]<br/>class = 7>, fillcolor="#a63ee6"] ;
63 -> 81 ;
82 [label=<pixel_463 &le; 0.016<br/>gini = 0.027<br/>samples = 72<br/>value = [0, 0, 0, 1, 0, 0, 0, 71, 0, 0]<br/>class = 7>, fillcolor="#a43ce5"] ;
81 -> 82 ;
83 [label=<gini = 0.0<br/>samples = 1<br/>value = [0, 0, 0, 1, 0, 0, 0, 0, 0, 0]<br/>class = 3>, fillcolor="#39e55e"] ;
82 -> 83 ;
84 [label=<gini = 0.0<br/>samples = 71<br/>value = [0, 0, 0, 0, 0, 0, 0, 71, 0, 0]<br/>class = 7>, fillcolor="#a339e5"] ;
82 -> 84 ;
85 [label=<gini = 0.0<br/>samples = 1<br/>value = [0, 0, 0, 0, 0, 0, 0, 0, 0, 1]<br/>class = 9>, fillcolor="#e53958"] ;
81 -> 85 ;
86 [label=<pixel_689 &le; 0.292<br/>gini = 0.077<br/>samples = 25<br/>value = [0, 0, 1, 0, 0, 0, 0, 24, 0, 0]<br/>class = 7>, fillcolor="#a741e6"] ;
62 -> 86 ;
87 [label=<gini = 0.0<br/>samples = 24<br/>value = [0, 0, 0, 0, 0, 0, 0, 24, 0, 0]<br/>class = 7>, fillcolor="#a339e5"] ;
86 -> 87 ;
88 [label=<gini = 0.0<br/>samples = 1<br/>value = [0, 0, 1, 0, 0, 0, 0, 0, 0, 0]<br/>class = 2>, fillcolor="#7be539"] ;
86 -> 88 ;
89 [label=<gini = 0.0<br/>samples = 1<br/>value = [0, 0, 1, 0, 0, 0, 0, 0, 0, 0]<br/>class = 2>, fillcolor="#7be539"] ;
21 -> 89 ;
90 [label=<gini = 0.0<br/>samples = 1<br/>value = [0, 0, 1, 0, 0, 0, 0, 0, 0, 0]<br/>class = 2>, fillcolor="#7be539"] ;
20 -> 90 ;
91 [label=<gini = 0.0<br/>samples = 1<br/>value = [0, 0, 0, 1, 0, 0, 0, 0, 0, 0]<br/>class = 3>, fillcolor="#39e55e"] ;
19 -> 91 ;
92 [label=<pixel_182 &le; 0.635<br/>gini = 0.135<br/>samples = 436<br/>value = [0, 2, 1, 3, 1, 2, 0, 405, 0, 22]<br/>class = 7>, fillcolor="#aa48e7"] ;
18 -> 92 ;
93 [label=<pixel_297 &le; 0.002<br/>gini = 0.087<br/>samples = 401<br/>value = [0, 2, 1, 2, 1, 2, 0, 383, 0, 10]<br/>class = 7>, fillcolor="#a742e6"] ;
92 -> 93 ;
94 [label=<pixel_211 &le; 0.786<br/>gini = 0.635<br/>samples = 21<br/>value = [0, 2, 1, 1, 1, 1, 0, 12, 0, 3]<br/>class = 7>, fillcolor="#d19cf2"] ;
93 -> 94 ;
95 [label=<pixel_379 &le; 0.994<br/>gini = 0.255<br/>samples = 14<br/>value = [0, 0, 1, 0, 1, 0, 0, 12, 0, 0]<br/>class = 7>, fillcolor="#b157e9"] ;
94 -> 95 ;
96 [label=<gini = 0.0<br/>samples = 12<br/>value = [0, 0, 0, 0, 0, 0, 0, 12, 0, 0]<br/>class = 7>, fillcolor="#a339e5"] ;
95 -> 96 ;
97 [label=<pixel_465 &le; 0.451<br/>gini = 0.5<br/>samples = 2<br/>value = [0, 0, 1, 0, 1, 0, 0, 0, 0, 0]<br/>class = 2>, fillcolor="#ffffff"] ;
95 -> 97 ;
98 [label=<gini = 0.0<br/>samples = 1<br/>value = [0, 0, 1, 0, 0, 0, 0, 0, 0, 0]<br/>class = 2>, fillcolor="#7be539"] ;
97 -> 98 ;
99 [label=<gini = 0.0<br/>samples = 1<br/>value = [0, 0, 0, 0, 1, 0, 0, 0, 0, 0]<br/>class = 4>, fillcolor="#39e5c5"] ;
97 -> 99 ;
100 [label=<pixel_184 &le; 0.004<br/>gini = 0.694<br/>samples = 7<br/>value = [0, 2, 0, 1, 0, 1, 0, 0, 0, 3]<br/>class = 9>, fillcolor="#fad7de"] ;
94 -> 100 ;
101 [label=<gini = 0.0<br/>samples = 3<br/>value = [0, 0, 0, 0, 0, 0, 0, 0, 0, 3]<br/>class = 9>, fillcolor="#e53958"] ;
100 -> 101 ;
102 [label=<pixel_319 &le; 0.098<br/>gini = 0.625<br/>samples = 4<br/>value = [0, 2, 0, 1, 0, 1, 0, 0, 0, 0]<br/>class = 1>, fillcolor="#f5f6bd"] ;
100 -> 102 ;
103 [label=<gini = 0.0<br/>samples = 2<br/>value = [0, 2, 0, 0, 0, 0, 0, 0, 0, 0]<br/>class = 1>, fillcolor="#e2e539"] ;
102 -> 103 ;
104 [label=<pixel_211 &le; 0.976<br/>gini = 0.5<br/>samples = 2<br/>value = [0, 0, 0, 1, 0, 1, 0, 0, 0, 0]<br/>class = 3>, fillcolor="#ffffff"] ;
102 -> 104 ;
105 [label=<gini = 0.0<br/>samples = 1<br/>value = [0, 0, 0, 0, 0, 1, 0, 0, 0, 0]<br/>class = 5>, fillcolor="#399de5"] ;
104 -> 105 ;
106 [label=<gini = 0.0<br/>samples = 1<br/>value = [0, 0, 0, 1, 0, 0, 0, 0, 0, 0]<br/>class = 3>, fillcolor="#39e55e"] ;
104 -> 106 ;
107 [label=<pixel_158 &le; 0.067<br/>gini = 0.046<br/>samples = 380<br/>value = [0.0, 0.0, 0.0, 1.0, 0.0, 1.0, 0.0, 371.0, 0.0, 7.0]<br/>class = 7>, fillcolor="#a53ee6"] ;
93 -> 107 ;
108 [label=<pixel_733 &le; 0.533<br/>gini = 0.041<br/>samples = 379<br/>value = [0, 0, 0, 1, 0, 0, 0, 371, 0, 7]<br/>class = 7>, fillcolor="#a53de6"] ;
107 -> 108 ;
109 [label=<pixel_296 &le; 0.049<br/>gini = 0.036<br/>samples = 378<br/>value = [0, 0, 0, 1, 0, 0, 0, 371, 0, 6]<br/>class = 7>, fillcolor="#a53de5"] ;
108 -> 109 ;
110 [label=<pixel_603 &le; 0.496<br/>gini = 0.5<br/>samples = 2<br/>value = [0, 0, 0, 0, 0, 0, 0, 1, 0, 1]<br/>class = 7>, fillcolor="#ffffff"] ;
109 -> 110 ;
111 [label=<gini = 0.0<br/>samples = 1<br/>value = [0, 0, 0, 0, 0, 0, 0, 1, 0, 0]<br/>class = 7>, fillcolor="#a339e5"] ;
110 -> 111 ;
112 [label=<gini = 0.0<br/>samples = 1<br/>value = [0, 0, 0, 0, 0, 0, 0, 0, 0, 1]<br/>class = 9>, fillcolor="#e53958"] ;
110 -> 112 ;
113 [label=<pixel_172 &le; 0.569<br/>gini = 0.031<br/>samples = 376<br/>value = [0, 0, 0, 1, 0, 0, 0, 370, 0, 5]<br/>class = 7>, fillcolor="#a43ce5"] ;
109 -> 113 ;
114 [label=<pixel_209 &le; 0.998<br/>gini = 0.026<br/>samples = 373<br/>value = [0, 0, 0, 0, 0, 0, 0, 368, 0, 5]<br/>class = 7>, fillcolor="#a43ce5"] ;
113 -> 114 ;
115 [label=<pixel_376 &le; 0.037<br/>gini = 0.017<br/>samples = 360<br/>value = [0, 0, 0, 0, 0, 0, 0, 357, 0, 3]<br/>class = 7>, fillcolor="#a43be5"] ;
114 -> 115 ;
116 [label=<gini = 0.0<br/>samples = 327<br/>value = [0, 0, 0, 0, 0, 0, 0, 327, 0, 0]<br/>class = 7>, fillcolor="#a339e5"] ;
115 -> 116 ;
117 [label=<pixel_299 &le; 0.02<br/>gini = 0.165<br/>samples = 33<br/>value = [0, 0, 0, 0, 0, 0, 0, 30, 0, 3]<br/>class = 7>, fillcolor="#ac4de8"] ;
115 -> 117 ;
118 [label=<gini = 0.0<br/>samples = 2<br/>value = [0, 0, 0, 0, 0, 0, 0, 0, 0, 2]<br/>class = 9>, fillcolor="#e53958"] ;
117 -> 118 ;
119 [label=<pixel_207 &le; 0.702<br/>gini = 0.062<br/>samples = 31<br/>value = [0, 0, 0, 0, 0, 0, 0, 30, 0, 1]<br/>class = 7>, fillcolor="#a640e6"] ;
117 -> 119 ;
120 [label=<gini = 0.0<br/>samples = 30<br/>value = [0, 0, 0, 0, 0, 0, 0, 30, 0, 0]<br/>class = 7>, fillcolor="#a339e5"] ;
119 -> 120 ;
121 [label=<gini = 0.0<br/>samples = 1<br/>value = [0, 0, 0, 0, 0, 0, 0, 0, 0, 1]<br/>class = 9>, fillcolor="#e53958"] ;
119 -> 121 ;
122 [label=<pixel_574 &le; 0.145<br/>gini = 0.26<br/>samples = 13<br/>value = [0, 0, 0, 0, 0, 0, 0, 11, 0, 2]<br/>class = 7>, fillcolor="#b45dea"] ;
114 -> 122 ;
123 [label=<gini = 0.0<br/>samples = 2<br/>value = [0, 0, 0, 0, 0, 0, 0, 0, 0, 2]<br/>class = 9>, fillcolor="#e53958"] ;
122 -> 123 ;
124 [label=<gini = 0.0<br/>samples = 11<br/>value = [0, 0, 0, 0, 0, 0, 0, 11, 0, 0]<br/>class = 7>, fillcolor="#a339e5"] ;
122 -> 124 ;
125 [label=<pixel_328 &le; 0.022<br/>gini = 0.444<br/>samples = 3<br/>value = [0, 0, 0, 1, 0, 0, 0, 2, 0, 0]<br/>class = 7>, fillcolor="#d19cf2"] ;
113 -> 125 ;
126 [label=<gini = 0.0<br/>samples = 1<br/>value = [0, 0, 0, 1, 0, 0, 0, 0, 0, 0]<br/>class = 3>, fillcolor="#39e55e"] ;
125 -> 126 ;
127 [label=<gini = 0.0<br/>samples = 2<br/>value = [0, 0, 0, 0, 0, 0, 0, 2, 0, 0]<br/>class = 7>, fillcolor="#a339e5"] ;
125 -> 127 ;
128 [label=<gini = 0.0<br/>samples = 1<br/>value = [0, 0, 0, 0, 0, 0, 0, 0, 0, 1]<br/>class = 9>, fillcolor="#e53958"] ;
108 -> 128 ;
129 [label=<gini = 0.0<br/>samples = 1<br/>value = [0, 0, 0, 0, 0, 1, 0, 0, 0, 0]<br/>class = 5>, fillcolor="#399de5"] ;
107 -> 129 ;
130 [label=<pixel_321 &le; 0.149<br/>gini = 0.487<br/>samples = 35<br/>value = [0, 0, 0, 1, 0, 0, 0, 22, 0, 12]<br/>class = 7>, fillcolor="#d7a9f4"] ;
92 -> 130 ;
131 [label=<gini = 0.0<br/>samples = 18<br/>value = [0, 0, 0, 0, 0, 0, 0, 18, 0, 0]<br/>class = 7>, fillcolor="#a339e5"] ;
130 -> 131 ;
132 [label=<pixel_264 &le; 0.78<br/>gini = 0.443<br/>samples = 17<br/>value = [0, 0, 0, 1, 0, 0, 0, 4, 0, 12]<br/>class = 9>, fillcolor="#ef8598"] ;
130 -> 132 ;
133 [label=<gini = 0.0<br/>samples = 11<br/>value = [0, 0, 0, 0, 0, 0, 0, 0, 0, 11]<br/>class = 9>, fillcolor="#e53958"] ;
132 -> 133 ;
134 [label=<pixel_492 &le; 0.161<br/>gini = 0.5<br/>samples = 6<br/>value = [0, 0, 0, 1, 0, 0, 0, 4, 0, 1]<br/>class = 7>, fillcolor="#c888ef"] ;
132 -> 134 ;
135 [label=<pixel_655 &le; 0.747<br/>gini = 0.5<br/>samples = 2<br/>value = [0, 0, 0, 1, 0, 0, 0, 0, 0, 1]<br/>class = 3>, fillcolor="#ffffff"] ;
134 -> 135 ;
136 [label=<gini = 0.0<br/>samples = 1<br/>value = [0, 0, 0, 0, 0, 0, 0, 0, 0, 1]<br/>class = 9>, fillcolor="#e53958"] ;
135 -> 136 ;
137 [label=<gini = 0.0<br/>samples = 1<br/>value = [0, 0, 0, 1, 0, 0, 0, 0, 0, 0]<br/>class = 3>, fillcolor="#39e55e"] ;
135 -> 137 ;
138 [label=<gini = 0.0<br/>samples = 4<br/>value = [0, 0, 0, 0, 0, 0, 0, 4, 0, 0]<br/>class = 7>, fillcolor="#a339e5"] ;
134 -> 138 ;
139 [label=<pixel_242 &le; 0.049<br/>gini = 0.48<br/>samples = 10<br/>value = [0, 0, 4, 0, 0, 0, 0, 6, 0, 0]<br/>class = 7>, fillcolor="#e0bdf6"] ;
17 -> 139 ;
140 [label=<gini = 0.0<br/>samples = 4<br/>value = [0, 0, 4, 0, 0, 0, 0, 0, 0, 0]<br/>class = 2>, fillcolor="#7be539"] ;
139 -> 140 ;
141 [label=<gini = 0.0<br/>samples = 6<br/>value = [0, 0, 0, 0, 0, 0, 0, 6, 0, 0]<br/>class = 7>, fillcolor="#a339e5"] ;
139 -> 141 ;
142 [label=<gini = 0.0<br/>samples = 2<br/>value = [0, 0, 2, 0, 0, 0, 0, 0, 0, 0]<br/>class = 2>, fillcolor="#7be539"] ;
16 -> 142 ;
143 [label=<pixel_515 &le; 0.016<br/>gini = 0.611<br/>samples = 6<br/>value = [0, 0, 3, 1, 0, 0, 0, 2, 0, 0]<br/>class = 2>, fillcolor="#def8ce"] ;
15 -> 143 ;
144 [label=<pixel_267 &le; 0.994<br/>gini = 0.444<br/>samples = 3<br/>value = [0, 0, 0, 1, 0, 0, 0, 2, 0, 0]<br/>class = 7>, fillcolor="#d19cf2"] ;
143 -> 144 ;
145 [label=<gini = 0.0<br/>samples = 2<br/>value = [0, 0, 0, 0, 0, 0, 0, 2, 0, 0]<br/>class = 7>, fillcolor="#a339e5"] ;
144 -> 145 ;
146 [label=<gini = 0.0<br/>samples = 1<br/>value = [0, 0, 0, 1, 0, 0, 0, 0, 0, 0]<br/>class = 3>, fillcolor="#39e55e"] ;
144 -> 146 ;
147 [label=<gini = 0.0<br/>samples = 3<br/>value = [0, 0, 3, 0, 0, 0, 0, 0, 0, 0]<br/>class = 2>, fillcolor="#7be539"] ;
143 -> 147 ;
148 [label=<pixel_462 &le; 0.994<br/>gini = 0.278<br/>samples = 6<br/>value = [0, 0, 5, 0, 0, 0, 0, 1, 0, 0]<br/>class = 2>, fillcolor="#95ea61"] ;
14 -> 148 ;
149 [label=<gini = 0.0<br/>samples = 5<br/>value = [0, 0, 5, 0, 0, 0, 0, 0, 0, 0]<br/>class = 2>, fillcolor="#7be539"] ;
148 -> 149 ;
150 [label=<gini = 0.0<br/>samples = 1<br/>value = [0, 0, 0, 0, 0, 0, 0, 1, 0, 0]<br/>class = 7>, fillcolor="#a339e5"] ;
148 -> 150 ;
151 [label=<pixel_606 &le; 0.892<br/>gini = 0.412<br/>samples = 126<br/>value = [0, 1, 6, 16, 2, 1, 0, 95, 1, 4]<br/>class = 7>, fillcolor="#bd71ec"] ;
13 -> 151 ;
152 [label=<pixel_403 &le; 0.52<br/>gini = 0.353<br/>samples = 119<br/>value = [0, 1, 6, 9, 2, 1, 0, 95, 1, 4]<br/>class = 7>, fillcolor="#b764eb"] ;
151 -> 152 ;
153 [label=<pixel_379 &le; 0.12<br/>gini = 0.284<br/>samples = 113<br/>value = [0, 1, 6, 9, 0, 0, 0, 95, 0, 2]<br/>class = 7>, fillcolor="#b35bea"] ;
152 -> 153 ;
154 [label=<pixel_467 &le; 0.01<br/>gini = 0.602<br/>samples = 30<br/>value = [0, 0, 4, 7, 0, 0, 0, 17, 0, 2]<br/>class = 7>, fillcolor="#d7a9f4"] ;
153 -> 154 ;
155 [label=<pixel_542 &le; 0.061<br/>gini = 0.48<br/>samples = 10<br/>value = [0, 0, 1, 7, 0, 0, 0, 1, 0, 1]<br/>class = 3>, fillcolor="#7bee94"] ;
154 -> 155 ;
156 [label=<pixel_516 &le; 0.037<br/>gini = 0.219<br/>samples = 8<br/>value = [0, 0, 0, 7, 0, 0, 0, 1, 0, 0]<br/>class = 3>, fillcolor="#55e975"] ;
155 -> 156 ;
157 [label=<gini = 0.0<br/>samples = 1<br/>value = [0, 0, 0, 0, 0, 0, 0, 1, 0, 0]<br/>class = 7>, fillcolor="#a339e5"] ;
156 -> 157 ;
158 [label=<gini = 0.0<br/>samples = 7<br/>value = [0, 0, 0, 7, 0, 0, 0, 0, 0, 0]<br/>class = 3>, fillcolor="#39e55e"] ;
156 -> 158 ;
159 [label=<pixel_465 &le; 0.373<br/>gini = 0.5<br/>samples = 2<br/>value = [0, 0, 1, 0, 0, 0, 0, 0, 0, 1]<br/>class = 2>, fillcolor="#ffffff"] ;
155 -> 159 ;
160 [label=<gini = 0.0<br/>samples = 1<br/>value = [0, 0, 1, 0, 0, 0, 0, 0, 0, 0]<br/>class = 2>, fillcolor="#7be539"] ;
159 -> 160 ;
161 [label=<gini = 0.0<br/>samples = 1<br/>value = [0, 0, 0, 0, 0, 0, 0, 0, 0, 1]<br/>class = 9>, fillcolor="#e53958"] ;
159 -> 161 ;
162 [label=<pixel_571 &le; 0.649<br/>gini = 0.335<br/>samples = 20<br/>value = [0, 0, 3, 0, 0, 0, 0, 16, 0, 1]<br/>class = 7>, fillcolor="#b968eb"] ;
154 -> 162 ;
163 [label=<pixel_659 &le; 0.992<br/>gini = 0.111<br/>samples = 17<br/>value = [0, 0, 0, 0, 0, 0, 0, 16, 0, 1]<br/>class = 7>, fillcolor="#a945e7"] ;
162 -> 163 ;
164 [label=<gini = 0.0<br/>samples = 16<br/>value = [0, 0, 0, 0, 0, 0, 0, 16, 0, 0]<br/>class = 7>, fillcolor="#a339e5"] ;
163 -> 164 ;
165 [label=<gini = 0.0<br/>samples = 1<br/>value = [0, 0, 0, 0, 0, 0, 0, 0, 0, 1]<br/>class = 9>, fillcolor="#e53958"] ;
163 -> 165 ;
166 [label=<gini = 0.0<br/>samples = 3<br/>value = [0, 0, 3, 0, 0, 0, 0, 0, 0, 0]<br/>class = 2>, fillcolor="#7be539"] ;
162 -> 166 ;
167 [label=<pixel_157 &le; 0.492<br/>gini = 0.116<br/>samples = 83<br/>value = [0, 1, 2, 2, 0, 0, 0, 78, 0, 0]<br/>class = 7>, fillcolor="#a945e7"] ;
153 -> 167 ;
168 [label=<pixel_453 &le; 0.284<br/>gini = 0.094<br/>samples = 82<br/>value = [0, 0, 2, 2, 0, 0, 0, 78, 0, 0]<br/>class = 7>, fillcolor="#a843e6"] ;
167 -> 168 ;
169 [label=<pixel_341 &le; 0.888<br/>gini = 0.072<br/>samples = 81<br/>value = [0, 0, 2, 1, 0, 0, 0, 78, 0, 0]<br/>class = 7>, fillcolor="#a641e6"] ;
168 -> 169 ;
170 [label=<pixel_718 &le; 0.12<br/>gini = 0.049<br/>samples = 80<br/>value = [0, 0, 1, 1, 0, 0, 0, 78, 0, 0]<br/>class = 7>, fillcolor="#a53ee6"] ;
169 -> 170 ;
171 [label=<pixel_711 &le; 0.982<br/>gini = 0.025<br/>samples = 78<br/>value = [0, 0, 0, 1, 0, 0, 0, 77, 0, 0]<br/>class = 7>, fillcolor="#a43ce5"] ;
170 -> 171 ;
172 [label=<gini = 0.0<br/>samples = 75<br/>value = [0, 0, 0, 0, 0, 0, 0, 75, 0, 0]<br/>class = 7>, fillcolor="#a339e5"] ;
171 -> 172 ;
173 [label=<pixel_628 &le; 0.602<br/>gini = 0.444<br/>samples = 3<br/>value = [0, 0, 0, 1, 0, 0, 0, 2, 0, 0]<br/>class = 7>, fillcolor="#d19cf2"] ;
171 -> 173 ;
174 [label=<gini = 0.0<br/>samples = 1<br/>value = [0, 0, 0, 1, 0, 0, 0, 0, 0, 0]<br/>class = 3>, fillcolor="#39e55e"] ;
173 -> 174 ;
175 [label=<gini = 0.0<br/>samples = 2<br/>value = [0, 0, 0, 0, 0, 0, 0, 2, 0, 0]<br/>class = 7>, fillcolor="#a339e5"] ;
173 -> 175 ;
176 [label=<pixel_464 &le; 0.798<br/>gini = 0.5<br/>samples = 2<br/>value = [0, 0, 1, 0, 0, 0, 0, 1, 0, 0]<br/>class = 2>, fillcolor="#ffffff"] ;
170 -> 176 ;
177 [label=<gini = 0.0<br/>samples = 1<br/>value = [0, 0, 1, 0, 0, 0, 0, 0, 0, 0]<br/>class = 2>, fillcolor="#7be539"] ;
176 -> 177 ;
178 [label=<gini = 0.0<br/>samples = 1<br/>value = [0, 0, 0, 0, 0, 0, 0, 1, 0, 0]<br/>class = 7>, fillcolor="#a339e5"] ;
176 -> 178 ;
179 [label=<gini = 0.0<br/>samples = 1<br/>value = [0, 0, 1, 0, 0, 0, 0, 0, 0, 0]<br/>class = 2>, fillcolor="#7be539"] ;
169 -> 179 ;
180 [label=<gini = 0.0<br/>samples = 1<br/>value = [0, 0, 0, 1, 0, 0, 0, 0, 0, 0]<br/>class = 3>, fillcolor="#39e55e"] ;
168 -> 180 ;
181 [label=<gini = 0.0<br/>samples = 1<br/>value = [0, 1, 0, 0, 0, 0, 0, 0, 0, 0]<br/>class = 1>, fillcolor="#e2e539"] ;
167 -> 181 ;
182 [label=<pixel_235 &le; 0.304<br/>gini = 0.722<br/>samples = 6<br/>value = [0, 0, 0, 0, 2, 1, 0, 0, 1, 2]<br/>class = 4>, fillcolor="#ffffff"] ;
152 -> 182 ;
183 [label=<gini = 0.0<br/>samples = 2<br/>value = [0, 0, 0, 0, 0, 0, 0, 0, 0, 2]<br/>class = 9>, fillcolor="#e53958"] ;
182 -> 183 ;
184 [label=<pixel_716 &le; 0.053<br/>gini = 0.625<br/>samples = 4<br/>value = [0, 0, 0, 0, 2, 1, 0, 0, 1, 0]<br/>class = 4>, fillcolor="#bdf6ec"] ;
182 -> 184 ;
185 [label=<pixel_598 &le; 0.5<br/>gini = 0.5<br/>samples = 2<br/>value = [0, 0, 0, 0, 0, 1, 0, 0, 1, 0]<br/>class = 5>, fillcolor="#ffffff"] ;
184 -> 185 ;
186 [label=<gini = 0.0<br/>samples = 1<br/>value = [0, 0, 0, 0, 0, 1, 0, 0, 0, 0]<br/>class = 5>, fillcolor="#399de5"] ;
185 -> 186 ;
187 [label=<gini = 0.0<br/>samples = 1<br/>value = [0, 0, 0, 0, 0, 0, 0, 0, 1, 0]<br/>class = 8>, fillcolor="#e539c0"] ;
185 -> 187 ;
188 [label=<gini = 0.0<br/>samples = 2<br/>value = [0, 0, 0, 0, 2, 0, 0, 0, 0, 0]<br/>class = 4>, fillcolor="#39e5c5"] ;
184 -> 188 ;
189 [label=<gini = 0.0<br/>samples = 7<br/>value = [0, 0, 0, 7, 0, 0, 0, 0, 0, 0]<br/>class = 3>, fillcolor="#39e55e"] ;
151 -> 189 ;
190 [label=<pixel_271 &le; 0.169<br/>gini = 0.612<br/>samples = 7<br/>value = [0, 0, 0, 0, 1, 0, 3, 0, 0, 3]<br/>class = 6>, fillcolor="#ffffff"] ;
12 -> 190 ;
191 [label=<pixel_520 &le; 0.012<br/>gini = 0.375<br/>samples = 4<br/>value = [0, 0, 0, 0, 1, 0, 3, 0, 0, 0]<br/>class = 6>, fillcolor="#7d7bee"] ;
190 -> 191 ;
192 [label=<gini = 0.0<br/>samples = 1<br/>value = [0, 0, 0, 0, 1, 0, 0, 0, 0, 0]<br/>class = 4>, fillcolor="#39e5c5"] ;
191 -> 192 ;
193 [label=<gini = 0.0<br/>samples = 3<br/>value = [0, 0, 0, 0, 0, 0, 3, 0, 0, 0]<br/>class = 6>, fillcolor="#3c39e5"] ;
191 -> 193 ;
194 [label=<gini = 0.0<br/>samples = 3<br/>value = [0, 0, 0, 0, 0, 0, 0, 0, 0, 3]<br/>class = 9>, fillcolor="#e53958"] ;
190 -> 194 ;
195 [label=<pixel_265 &le; 0.606<br/>gini = 0.403<br/>samples = 12<br/>value = [0, 0, 0, 0, 0, 1, 0, 2, 0, 9]<br/>class = 9>, fillcolor="#ed748a"] ;
11 -> 195 ;
196 [label=<gini = 0.0<br/>samples = 9<br/>value = [0, 0, 0, 0, 0, 0, 0, 0, 0, 9]<br/>class = 9>, fillcolor="#e53958"] ;
195 -> 196 ;
197 [label=<pixel_210 &le; 0.282<br/>gini = 0.444<br/>samples = 3<br/>value = [0, 0, 0, 0, 0, 1, 0, 2, 0, 0]<br/>class = 7>, fillcolor="#d19cf2"] ;
195 -> 197 ;
198 [label=<gini = 0.0<br/>samples = 1<br/>value = [0, 0, 0, 0, 0, 1, 0, 0, 0, 0]<br/>class = 5>, fillcolor="#399de5"] ;
197 -> 198 ;
199 [label=<gini = 0.0<br/>samples = 2<br/>value = [0, 0, 0, 0, 0, 0, 0, 2, 0, 0]<br/>class = 7>, fillcolor="#a339e5"] ;
197 -> 199 ;
200 [label=<pixel_291 &le; 0.908<br/>gini = 0.708<br/>samples = 34<br/>value = [0, 0, 0, 1, 6, 2, 0, 14, 1, 10]<br/>class = 7>, fillcolor="#f0defb"] ;
10 -> 200 ;
201 [label=<pixel_209 &le; 0.249<br/>gini = 0.676<br/>samples = 21<br/>value = [0, 0, 0, 1, 6, 2, 0, 1, 1, 10]<br/>class = 9>, fillcolor="#f8cad2"] ;
200 -> 201 ;
202 [label=<pixel_491 &le; 0.202<br/>gini = 0.58<br/>samples = 10<br/>value = [0, 0, 0, 0, 6, 2, 0, 1, 1, 0]<br/>class = 4>, fillcolor="#9cf2e2"] ;
201 -> 202 ;
203 [label=<pixel_247 &le; 0.312<br/>gini = 0.625<br/>samples = 4<br/>value = [0, 0, 0, 0, 0, 2, 0, 1, 1, 0]<br/>class = 5>, fillcolor="#bddef6"] ;
202 -> 203 ;
204 [label=<pixel_343 &le; 0.712<br/>gini = 0.5<br/>samples = 2<br/>value = [0, 0, 0, 0, 0, 0, 0, 1, 1, 0]<br/>class = 7>, fillcolor="#ffffff"] ;
203 -> 204 ;
205 [label=<gini = 0.0<br/>samples = 1<br/>value = [0, 0, 0, 0, 0, 0, 0, 0, 1, 0]<br/>class = 8>, fillcolor="#e539c0"] ;
204 -> 205 ;
206 [label=<gini = 0.0<br/>samples = 1<br/>value = [0, 0, 0, 0, 0, 0, 0, 1, 0, 0]<br/>class = 7>, fillcolor="#a339e5"] ;
204 -> 206 ;
207 [label=<gini = 0.0<br/>samples = 2<br/>value = [0, 0, 0, 0, 0, 2, 0, 0, 0, 0]<br/>class = 5>, fillcolor="#399de5"] ;
203 -> 207 ;
208 [label=<gini = 0.0<br/>samples = 6<br/>value = [0, 0, 0, 0, 6, 0, 0, 0, 0, 0]<br/>class = 4>, fillcolor="#39e5c5"] ;
202 -> 208 ;
209 [label=<pixel_205 &le; 0.567<br/>gini = 0.165<br/>samples = 11<br/>value = [0, 0, 0, 1, 0, 0, 0, 0, 0, 10]<br/>class = 9>, fillcolor="#e84d69"] ;
201 -> 209 ;
210 [label=<gini = 0.0<br/>samples = 10<br/>value = [0, 0, 0, 0, 0, 0, 0, 0, 0, 10]<br/>class = 9>, fillcolor="#e53958"] ;
209 -> 210 ;
211 [label=<gini = 0.0<br/>samples = 1<br/>value = [0, 0, 0, 1, 0, 0, 0, 0, 0, 0]<br/>class = 3>, fillcolor="#39e55e"] ;
209 -> 211 ;
212 [label=<gini = 0.0<br/>samples = 13<br/>value = [0, 0, 0, 0, 0, 0, 0, 13, 0, 0]<br/>class = 7>, fillcolor="#a339e5"] ;
200 -> 212 ;
213 [label=<pixel_297 &le; 0.694<br/>gini = 0.292<br/>samples = 12<br/>value = [0, 10, 0, 0, 1, 1, 0, 0, 0, 0]<br/>class = 1>, fillcolor="#e7ea5d"] ;
9 -> 213 ;
214 [label=<pixel_259 &le; 0.19<br/>gini = 0.5<br/>samples = 2<br/>value = [0, 0, 0, 0, 1, 1, 0, 0, 0, 0]<br/>class = 4>, fillcolor="#ffffff"] ;
213 -> 214 ;
215 [label=<gini = 0.0<br/>samples = 1<br/>value = [0, 0, 0, 0, 0, 1, 0, 0, 0, 0]<br/>class = 5>, fillcolor="#399de5"] ;
214 -> 215 ;
216 [label=<gini = 0.0<br/>samples = 1<br/>value = [0, 0, 0, 0, 1, 0, 0, 0, 0, 0]<br/>class = 4>, fillcolor="#39e5c5"] ;
214 -> 216 ;
217 [label=<gini = 0.0<br/>samples = 10<br/>value = [0, 10, 0, 0, 0, 0, 0, 0, 0, 0]<br/>class = 1>, fillcolor="#e2e539"] ;
213 -> 217 ;
218 [label=<pixel_555 &le; 0.304<br/>gini = 0.647<br/>samples = 48<br/>value = [0, 0, 23, 3, 0, 4, 0, 16, 0, 2]<br/>class = 2>, fillcolor="#e2f9d4"] ;
8 -> 218 ;
219 [label=<pixel_298 &le; 0.057<br/>gini = 0.683<br/>samples = 34<br/>value = [0, 0, 9, 3, 0, 4, 0, 16, 0, 2]<br/>class = 7>, fillcolor="#e5c8f8"] ;
218 -> 219 ;
220 [label=<pixel_262 &le; 0.755<br/>gini = 0.628<br/>samples = 11<br/>value = [0, 0, 5, 2, 0, 4, 0, 0, 0, 0]<br/>class = 2>, fillcolor="#ecfbe3"] ;
219 -> 220 ;
221 [label=<pixel_687 &le; 0.027<br/>gini = 0.444<br/>samples = 6<br/>value = [0, 0, 0, 2, 0, 4, 0, 0, 0, 0]<br/>class = 5>, fillcolor="#9ccef2"] ;
220 -> 221 ;
222 [label=<gini = 0.0<br/>samples = 2<br/>value = [0, 0, 0, 2, 0, 0, 0, 0, 0, 0]<br/>class = 3>, fillcolor="#39e55e"] ;
221 -> 222 ;
223 [label=<gini = 0.0<br/>samples = 4<br/>value = [0, 0, 0, 0, 0, 4, 0, 0, 0, 0]<br/>class = 5>, fillcolor="#399de5"] ;
221 -> 223 ;
224 [label=<gini = 0.0<br/>samples = 5<br/>value = [0, 0, 5, 0, 0, 0, 0, 0, 0, 0]<br/>class = 2>, fillcolor="#7be539"] ;
220 -> 224 ;
225 [label=<pixel_583 &le; 0.331<br/>gini = 0.476<br/>samples = 23<br/>value = [0, 0, 4, 1, 0, 0, 0, 16, 0, 2]<br/>class = 7>, fillcolor="#c582ef"] ;
219 -> 225 ;
226 [label=<pixel_184 &le; 0.216<br/>gini = 0.277<br/>samples = 19<br/>value = [0, 0, 1, 0, 0, 0, 0, 16, 0, 2]<br/>class = 7>, fillcolor="#b35cea"] ;
225 -> 226 ;
227 [label=<pixel_627 &le; 0.994<br/>gini = 0.111<br/>samples = 17<br/>value = [0, 0, 1, 0, 0, 0, 0, 16, 0, 0]<br/>class = 7>, fillcolor="#a945e7"] ;
226 -> 227 ;
228 [label=<gini = 0.0<br/>samples = 16<br/>value = [0, 0, 0, 0, 0, 0, 0, 16, 0, 0]<br/>class = 7>, fillcolor="#a339e5"] ;
227 -> 228 ;
229 [label=<gini = 0.0<br/>samples = 1<br/>value = [0, 0, 1, 0, 0, 0, 0, 0, 0, 0]<br/>class = 2>, fillcolor="#7be539"] ;
227 -> 229 ;
230 [label=<gini = 0.0<br/>samples = 2<br/>value = [0, 0, 0, 0, 0, 0, 0, 0, 0, 2]<br/>class = 9>, fillcolor="#e53958"] ;
226 -> 230 ;
231 [label=<pixel_522 &le; 0.639<br/>gini = 0.375<br/>samples = 4<br/>value = [0, 0, 3, 1, 0, 0, 0, 0, 0, 0]<br/>class = 2>, fillcolor="#a7ee7b"] ;
225 -> 231 ;
232 [label=<gini = 0.0<br/>samples = 3<br/>value = [0, 0, 3, 0, 0, 0, 0, 0, 0, 0]<br/>class = 2>, fillcolor="#7be539"] ;
231 -> 232 ;
233 [label=<gini = 0.0<br/>samples = 1<br/>value = [0, 0, 0, 1, 0, 0, 0, 0, 0, 0]<br/>class = 3>, fillcolor="#39e55e"] ;
231 -> 233 ;
234 [label=<gini = 0.0<br/>samples = 14<br/>value = [0, 0, 14, 0, 0, 0, 0, 0, 0, 0]<br/>class = 2>, fillcolor="#7be539"] ;
218 -> 234 ;
235 [label=<pixel_379 &le; 0.394<br/>gini = 0.674<br/>samples = 61<br/>value = [1, 33, 5, 0, 1, 6, 4, 5, 4, 2]<br/>class = 1>, fillcolor="#f1f29e"] ;
7 -> 235 ;
236 [label=<pixel_431 &le; 0.622<br/>gini = 0.818<br/>samples = 22<br/>value = [1, 0, 5, 0, 1, 6, 4, 2, 1, 2]<br/>class = 5>, fillcolor="#f3f9fd"] ;
235 -> 236 ;
237 [label=<pixel_572 &le; 0.622<br/>gini = 0.778<br/>samples = 18<br/>value = [1, 0, 5, 0, 1, 6, 0, 2, 1, 2]<br/>class = 5>, fillcolor="#f0f7fd"] ;
236 -> 237 ;
238 [label=<pixel_632 &le; 0.445<br/>gini = 0.722<br/>samples = 13<br/>value = [1, 0, 0, 0, 1, 6, 0, 2, 1, 2]<br/>class = 5>, fillcolor="#b7dbf6"] ;
237 -> 238 ;
239 [label=<pixel_233 &le; 0.092<br/>gini = 0.778<br/>samples = 6<br/>value = [1, 0, 0, 0, 1, 0, 0, 2, 1, 1]<br/>class = 7>, fillcolor="#edd7fa"] ;
238 -> 239 ;
240 [label=<pixel_681 &le; 0.041<br/>gini = 0.75<br/>samples = 4<br/>value = [1, 0, 0, 0, 1, 0, 0, 0, 1, 1]<br/>class = 0>, fillcolor="#ffffff"] ;
239 -> 240 ;
241 [label=<pixel_462 &le; 0.455<br/>gini = 0.5<br/>samples = 2<br/>value = [0, 0, 0, 0, 1, 0, 0, 0, 1, 0]<br/>class = 4>, fillcolor="#ffffff"] ;
240 -> 241 ;
242 [label=<gini = 0.0<br/>samples = 1<br/>value = [0, 0, 0, 0, 1, 0, 0, 0, 0, 0]<br/>class = 4>, fillcolor="#39e5c5"] ;
241 -> 242 ;
243 [label=<gini = 0.0<br/>samples = 1<br/>value = [0, 0, 0, 0, 0, 0, 0, 0, 1, 0]<br/>class = 8>, fillcolor="#e539c0"] ;
241 -> 243 ;
244 [label=<pixel_415 &le; 0.375<br/>gini = 0.5<br/>samples = 2<br/>value = [1, 0, 0, 0, 0, 0, 0, 0, 0, 1]<br/>class = 0>, fillcolor="#ffffff"] ;
240 -> 244 ;
245 [label=<gini = 0.0<br/>samples = 1<br/>value = [0, 0, 0, 0, 0, 0, 0, 0, 0, 1]<br/>class = 9>, fillcolor="#e53958"] ;
244 -> 245 ;
246 [label=<gini = 0.0<br/>samples = 1<br/>value = [1, 0, 0, 0, 0, 0, 0, 0, 0, 0]<br/>class = 0>, fillcolor="#e58139"] ;
244 -> 246 ;
247 [label=<gini = 0.0<br/>samples = 2<br/>value = [0, 0, 0, 0, 0, 0, 0, 2, 0, 0]<br/>class = 7>, fillcolor="#a339e5"] ;
239 -> 247 ;
248 [label=<pixel_381 &le; 0.98<br/>gini = 0.245<br/>samples = 7<br/>value = [0, 0, 0, 0, 0, 6, 0, 0, 0, 1]<br/>class = 5>, fillcolor="#5aade9"] ;
238 -> 248 ;
249 [label=<gini = 0.0<br/>samples = 6<br/>value = [0, 0, 0, 0, 0, 6, 0, 0, 0, 0]<br/>class = 5>, fillcolor="#399de5"] ;
248 -> 249 ;
250 [label=<gini = 0.0<br/>samples = 1<br/>value = [0, 0, 0, 0, 0, 0, 0, 0, 0, 1]<br/>class = 9>, fillcolor="#e53958"] ;
248 -> 250 ;
251 [label=<gini = 0.0<br/>samples = 5<br/>value = [0, 0, 5, 0, 0, 0, 0, 0, 0, 0]<br/>class = 2>, fillcolor="#7be539"] ;
237 -> 251 ;
252 [label=<gini = 0.0<br/>samples = 4<br/>value = [0, 0, 0, 0, 0, 0, 4, 0, 0, 0]<br/>class = 6>, fillcolor="#3c39e5"] ;
236 -> 252 ;
253 [label=<pixel_433 &le; 0.316<br/>gini = 0.272<br/>samples = 39<br/>value = [0, 33, 0, 0, 0, 0, 0, 3, 3, 0]<br/>class = 1>, fillcolor="#e7e95a"] ;
235 -> 253 ;
254 [label=<pixel_235 &le; 0.645<br/>gini = 0.108<br/>samples = 35<br/>value = [0, 33, 0, 0, 0, 0, 0, 2, 0, 0]<br/>class = 1>, fillcolor="#e4e745"] ;
253 -> 254 ;
255 [label=<gini = 0.0<br/>samples = 33<br/>value = [0, 33, 0, 0, 0, 0, 0, 0, 0, 0]<br/>class = 1>, fillcolor="#e2e539"] ;
254 -> 255 ;
256 [label=<gini = 0.0<br/>samples = 2<br/>value = [0, 0, 0, 0, 0, 0, 0, 2, 0, 0]<br/>class = 7>, fillcolor="#a339e5"] ;
254 -> 256 ;
257 [label=<pixel_376 &le; 0.059<br/>gini = 0.375<br/>samples = 4<br/>value = [0, 0, 0, 0, 0, 0, 0, 1, 3, 0]<br/>class = 8>, fillcolor="#ee7bd5"] ;
253 -> 257 ;
258 [label=<gini = 0.0<br/>samples = 1<br/>value = [0, 0, 0, 0, 0, 0, 0, 1, 0, 0]<br/>class = 7>, fillcolor="#a339e5"] ;
257 -> 258 ;
259 [label=<gini = 0.0<br/>samples = 3<br/>value = [0, 0, 0, 0, 0, 0, 0, 0, 3, 0]<br/>class = 8>, fillcolor="#e539c0"] ;
257 -> 259 ;
260 [label=<pixel_408 &le; 0.059<br/>gini = 0.226<br/>samples = 89<br/>value = [78, 2, 0, 4, 0, 5, 0, 0, 0, 0]<br/>class = 0>, fillcolor="#e89253"] ;
6 -> 260 ;
261 [label=<pixel_350 &le; 0.484<br/>gini = 0.025<br/>samples = 78<br/>value = [77, 0, 0, 0, 0, 1, 0, 0, 0, 0]<br/>class = 0>, fillcolor="#e5833c"] ;
260 -> 261 ;
262 [label=<gini = 0.0<br/>samples = 77<br/>value = [77, 0, 0, 0, 0, 0, 0, 0, 0, 0]<br/>class = 0>, fillcolor="#e58139"] ;
261 -> 262 ;
263 [label=<gini = 0.0<br/>samples = 1<br/>value = [0, 0, 0, 0, 0, 1, 0, 0, 0, 0]<br/>class = 5>, fillcolor="#399de5"] ;
261 -> 263 ;
264 [label=<pixel_631 &le; 0.098<br/>gini = 0.694<br/>samples = 11<br/>value = [1, 2, 0, 4, 0, 4, 0, 0, 0, 0]<br/>class = 3>, fillcolor="#ffffff"] ;
260 -> 264 ;
265 [label=<gini = 0.0<br/>samples = 4<br/>value = [0, 0, 0, 4, 0, 0, 0, 0, 0, 0]<br/>class = 3>, fillcolor="#39e55e"] ;
264 -> 265 ;
266 [label=<pixel_566 &le; 0.325<br/>gini = 0.571<br/>samples = 7<br/>value = [1, 2, 0, 0, 0, 4, 0, 0, 0, 0]<br/>class = 5>, fillcolor="#b0d8f5"] ;
264 -> 266 ;
267 [label=<pixel_155 &le; 0.057<br/>gini = 0.444<br/>samples = 3<br/>value = [1, 2, 0, 0, 0, 0, 0, 0, 0, 0]<br/>class = 1>, fillcolor="#f0f29c"] ;
266 -> 267 ;
268 [label=<gini = 0.0<br/>samples = 2<br/>value = [0, 2, 0, 0, 0, 0, 0, 0, 0, 0]<br/>class = 1>, fillcolor="#e2e539"] ;
267 -> 268 ;
269 [label=<gini = 0.0<br/>samples = 1<br/>value = [1, 0, 0, 0, 0, 0, 0, 0, 0, 0]<br/>class = 0>, fillcolor="#e58139"] ;
267 -> 269 ;
270 [label=<gini = 0.0<br/>samples = 4<br/>value = [0, 0, 0, 0, 0, 4, 0, 0, 0, 0]<br/>class = 5>, fillcolor="#399de5"] ;
266 -> 270 ;
271 [label=<pixel_571 &le; 0.02<br/>gini = 0.677<br/>samples = 489<br/>value = [52, 20, 261, 52, 1, 42, 12, 38, 6, 5]<br/>class = 2>, fillcolor="#c0f3a0"] ;
5 -> 271 ;
272 [label=<pixel_426 &le; 0.039<br/>gini = 0.827<br/>samples = 177<br/>value = [47, 13, 20, 40, 1, 27, 8, 15, 1, 5]<br/>class = 0>, fillcolor="#fef9f5"] ;
271 -> 272 ;
273 [label=<pixel_654 &le; 0.029<br/>gini = 0.808<br/>samples = 128<br/>value = [2, 13, 19, 40, 1, 27, 6, 15, 1, 4]<br/>class = 3>, fillcolor="#e6fcea"] ;
272 -> 273 ;
274 [label=<pixel_203 &le; 0.11<br/>gini = 0.789<br/>samples = 47<br/>value = [0.0, 8.0, 16.0, 1.0, 1.0, 2.0, 6.0, 10.0, 1.0, 2.0]<br/>class = 2>, fillcolor="#eafbdf"] ;
273 -> 274 ;
275 [label=<pixel_236 &le; 0.937<br/>gini = 0.812<br/>samples = 31<br/>value = [0, 8, 3, 1, 1, 1, 6, 8, 1, 2]<br/>class = 1>, fillcolor="#ffffff"] ;
274 -> 275 ;
276 [label=<pixel_180 &le; 0.806<br/>gini = 0.768<br/>samples = 25<br/>value = [0, 8, 3, 1, 1, 1, 0, 8, 1, 2]<br/>class = 1>, fillcolor="#ffffff"] ;
275 -> 276 ;
277 [label=<pixel_487 &le; 0.075<br/>gini = 0.556<br/>samples = 13<br/>value = [0, 8, 3, 1, 0, 0, 0, 0, 0, 1]<br/>class = 1>, fillcolor="#f0f29c"] ;
276 -> 277 ;
278 [label=<pixel_605 &le; 0.945<br/>gini = 0.198<br/>samples = 9<br/>value = [0, 8, 0, 1, 0, 0, 0, 0, 0, 0]<br/>class = 1>, fillcolor="#e6e852"] ;
277 -> 278 ;
279 [label=<gini = 0.0<br/>samples = 8<br/>value = [0, 8, 0, 0, 0, 0, 0, 0, 0, 0]<br/>class = 1>, fillcolor="#e2e539"] ;
278 -> 279 ;
280 [label=<gini = 0.0<br/>samples = 1<br/>value = [0, 0, 0, 1, 0, 0, 0, 0, 0, 0]<br/>class = 3>, fillcolor="#39e55e"] ;
278 -> 280 ;
281 [label=<pixel_547 &le; 0.941<br/>gini = 0.375<br/>samples = 4<br/>value = [0, 0, 3, 0, 0, 0, 0, 0, 0, 1]<br/>class = 2>, fillcolor="#a7ee7b"] ;
277 -> 281 ;
282 [label=<gini = 0.0<br/>samples = 3<br/>value = [0, 0, 3, 0, 0, 0, 0, 0, 0, 0]<br/>class = 2>, fillcolor="#7be539"] ;
281 -> 282 ;
283 [label=<gini = 0.0<br/>samples = 1<br/>value = [0, 0, 0, 0, 0, 0, 0, 0, 0, 1]<br/>class = 9>, fillcolor="#e53958"] ;
281 -> 283 ;
284 [label=<pixel_211 &le; 0.029<br/>gini = 0.528<br/>samples = 12<br/>value = [0, 0, 0, 0, 1, 1, 0, 8, 1, 1]<br/>class = 7>, fillcolor="#c481ee"] ;
276 -> 284 ;
285 [label=<pixel_408 &le; 0.422<br/>gini = 0.75<br/>samples = 4<br/>value = [0, 0, 0, 0, 1, 1, 0, 0, 1, 1]<br/>class = 4>, fillcolor="#ffffff"] ;
284 -> 285 ;
286 [label=<gini = 0.0<br/>samples = 1<br/>value = [0, 0, 0, 0, 0, 0, 0, 0, 1, 0]<br/>class = 8>, fillcolor="#e539c0"] ;
285 -> 286 ;
287 [label=<pixel_403 &le; 0.5<br/>gini = 0.667<br/>samples = 3<br/>value = [0, 0, 0, 0, 1, 1, 0, 0, 0, 1]<br/>class = 4>, fillcolor="#ffffff"] ;
285 -> 287 ;
288 [label=<pixel_152 &le; 0.165<br/>gini = 0.5<br/>samples = 2<br/>value = [0, 0, 0, 0, 0, 1, 0, 0, 0, 1]<br/>class = 5>, fillcolor="#ffffff"] ;
287 -> 288 ;
289 [label=<gini = 0.0<br/>samples = 1<br/>value = [0, 0, 0, 0, 0, 0, 0, 0, 0, 1]<br/>class = 9>, fillcolor="#e53958"] ;
288 -> 289 ;
290 [label=<gini = 0.0<br/>samples = 1<br/>value = [0, 0, 0, 0, 0, 1, 0, 0, 0, 0]<br/>class = 5>, fillcolor="#399de5"] ;
288 -> 290 ;
291 [label=<gini = 0.0<br/>samples = 1<br/>value = [0, 0, 0, 0, 1, 0, 0, 0, 0, 0]<br/>class = 4>, fillcolor="#39e5c5"] ;
287 -> 291 ;
292 [label=<gini = 0.0<br/>samples = 8<br/>value = [0, 0, 0, 0, 0, 0, 0, 8, 0, 0]<br/>class = 7>, fillcolor="#a339e5"] ;
284 -> 292 ;
293 [label=<gini = 0.0<br/>samples = 6<br/>value = [0, 0, 0, 0, 0, 0, 6, 0, 0, 0]<br/>class = 6>, fillcolor="#3c39e5"] ;
275 -> 293 ;
294 [label=<pixel_542 &le; 0.071<br/>gini = 0.32<br/>samples = 16<br/>value = [0, 0, 13, 0, 0, 1, 0, 2, 0, 0]<br/>class = 2>, fillcolor="#97eb63"] ;
274 -> 294 ;
295 [label=<pixel_156 &le; 0.608<br/>gini = 0.133<br/>samples = 14<br/>value = [0, 0, 13, 0, 0, 0, 0, 1, 0, 0]<br/>class = 2>, fillcolor="#85e748"] ;
294 -> 295 ;
296 [label=<gini = 0.0<br/>samples = 13<br/>value = [0, 0, 13, 0, 0, 0, 0, 0, 0, 0]<br/>class = 2>, fillcolor="#7be539"] ;
295 -> 296 ;
297 [label=<gini = 0.0<br/>samples = 1<br/>value = [0, 0, 0, 0, 0, 0, 0, 1, 0, 0]<br/>class = 7>, fillcolor="#a339e5"] ;
295 -> 297 ;
298 [label=<pixel_297 &le; 0.498<br/>gini = 0.5<br/>samples = 2<br/>value = [0, 0, 0, 0, 0, 1, 0, 1, 0, 0]<br/>class = 5>, fillcolor="#ffffff"] ;
294 -> 298 ;
299 [label=<gini = 0.0<br/>samples = 1<br/>value = [0, 0, 0, 0, 0, 1, 0, 0, 0, 0]<br/>class = 5>, fillcolor="#399de5"] ;
298 -> 299 ;
300 [label=<gini = 0.0<br/>samples = 1<br/>value = [0, 0, 0, 0, 0, 0, 0, 1, 0, 0]<br/>class = 7>, fillcolor="#a339e5"] ;
298 -> 300 ;
301 [label=<pixel_241 &le; 0.014<br/>gini = 0.663<br/>samples = 81<br/>value = [2, 5, 3, 39, 0, 25, 0, 5, 0, 2]<br/>class = 3>, fillcolor="#cef8d7"] ;
273 -> 301 ;
302 [label=<pixel_238 &le; 0.42<br/>gini = 0.588<br/>samples = 35<br/>value = [1, 1, 1, 10, 0, 20, 0, 1, 0, 1]<br/>class = 5>, fillcolor="#b0d8f5"] ;
301 -> 302 ;
303 [label=<pixel_272 &le; 0.069<br/>gini = 0.37<br/>samples = 26<br/>value = [1, 0, 0, 5, 0, 20, 0, 0, 0, 0]<br/>class = 5>, fillcolor="#72b9ec"] ;
302 -> 303 ;
304 [label=<pixel_150 &le; 0.959<br/>gini = 0.165<br/>samples = 22<br/>value = [0, 0, 0, 2, 0, 20, 0, 0, 0, 0]<br/>class = 5>, fillcolor="#4da7e8"] ;
303 -> 304 ;
305 [label=<gini = 0.0<br/>samples = 20<br/>value = [0, 0, 0, 0, 0, 20, 0, 0, 0, 0]<br/>class = 5>, fillcolor="#399de5"] ;
304 -> 305 ;
306 [label=<gini = 0.0<br/>samples = 2<br/>value = [0, 0, 0, 2, 0, 0, 0, 0, 0, 0]<br/>class = 3>, fillcolor="#39e55e"] ;
304 -> 306 ;
307 [label=<pixel_632 &le; 0.753<br/>gini = 0.375<br/>samples = 4<br/>value = [1, 0, 0, 3, 0, 0, 0, 0, 0, 0]<br/>class = 3>, fillcolor="#7bee94"] ;
303 -> 307 ;
308 [label=<gini = 0.0<br/>samples = 1<br/>value = [1, 0, 0, 0, 0, 0, 0, 0, 0, 0]<br/>class = 0>, fillcolor="#e58139"] ;
307 -> 308 ;
309 [label=<gini = 0.0<br/>samples = 3<br/>value = [0, 0, 0, 3, 0, 0, 0, 0, 0, 0]<br/>class = 3>, fillcolor="#39e55e"] ;
307 -> 309 ;
310 [label=<pixel_436 &le; 0.01<br/>gini = 0.642<br/>samples = 9<br/>value = [0, 1, 1, 5, 0, 0, 0, 1, 0, 1]<br/>class = 3>, fillcolor="#9cf2ae"] ;
302 -> 310 ;
311 [label=<gini = 0.0<br/>samples = 5<br/>value = [0, 0, 0, 5, 0, 0, 0, 0, 0, 0]<br/>class = 3>, fillcolor="#39e55e"] ;
310 -> 311 ;
312 [label=<pixel_326 &le; 0.494<br/>gini = 0.75<br/>samples = 4<br/>value = [0, 1, 1, 0, 0, 0, 0, 1, 0, 1]<br/>class = 1>, fillcolor="#ffffff"] ;
310 -> 312 ;
313 [label=<pixel_230 &le; 0.494<br/>gini = 0.667<br/>samples = 3<br/>value = [0, 1, 1, 0, 0, 0, 0, 0, 0, 1]<br/>class = 1>, fillcolor="#ffffff"] ;
312 -> 313 ;
314 [label=<pixel_206 &le; 0.014<br/>gini = 0.5<br/>samples = 2<br/>value = [0, 1, 1, 0, 0, 0, 0, 0, 0, 0]<br/>class = 1>, fillcolor="#ffffff"] ;
313 -> 314 ;
315 [label=<gini = 0.0<br/>samples = 1<br/>value = [0, 1, 0, 0, 0, 0, 0, 0, 0, 0]<br/>class = 1>, fillcolor="#e2e539"] ;
314 -> 315 ;
316 [label=<gini = 0.0<br/>samples = 1<br/>value = [0, 0, 1, 0, 0, 0, 0, 0, 0, 0]<br/>class = 2>, fillcolor="#7be539"] ;
314 -> 316 ;
317 [label=<gini = 0.0<br/>samples = 1<br/>value = [0, 0, 0, 0, 0, 0, 0, 0, 0, 1]<br/>class = 9>, fillcolor="#e53958"] ;
313 -> 317 ;
318 [label=<gini = 0.0<br/>samples = 1<br/>value = [0, 0, 0, 0, 0, 0, 0, 1, 0, 0]<br/>class = 7>, fillcolor="#a339e5"] ;
312 -> 318 ;
319 [label=<pixel_519 &le; 0.565<br/>gini = 0.573<br/>samples = 46<br/>value = [1, 4, 2, 29, 0, 5, 0, 4, 0, 1]<br/>class = 3>, fillcolor="#8bf0a1"] ;
301 -> 319 ;
320 [label=<pixel_260 &le; 0.549<br/>gini = 0.337<br/>samples = 31<br/>value = [1, 0, 1, 25, 0, 3, 0, 0, 0, 1]<br/>class = 3>, fillcolor="#63eb80"] ;
319 -> 320 ;
321 [label=<pixel_541 &le; 0.484<br/>gini = 0.145<br/>samples = 26<br/>value = [0, 0, 0, 24, 0, 1, 0, 0, 0, 1]<br/>class = 3>, fillcolor="#49e76b"] ;
320 -> 321 ;
322 [label=<pixel_383 &le; 0.996<br/>gini = 0.077<br/>samples = 25<br/>value = [0, 0, 0, 24, 0, 1, 0, 0, 0, 0]<br/>class = 3>, fillcolor="#41e665"] ;
321 -> 322 ;
323 [label=<gini = 0.0<br/>samples = 24<br/>value = [0, 0, 0, 24, 0, 0, 0, 0, 0, 0]<br/>class = 3>, fillcolor="#39e55e"] ;
322 -> 323 ;
324 [label=<gini = 0.0<br/>samples = 1<br/>value = [0, 0, 0, 0, 0, 1, 0, 0, 0, 0]<br/>class = 5>, fillcolor="#399de5"] ;
322 -> 324 ;
325 [label=<gini = 0.0<br/>samples = 1<br/>value = [0, 0, 0, 0, 0, 0, 0, 0, 0, 1]<br/>class = 9>, fillcolor="#e53958"] ;
321 -> 325 ;
326 [label=<pixel_353 &le; 0.48<br/>gini = 0.72<br/>samples = 5<br/>value = [1, 0, 1, 1, 0, 2, 0, 0, 0, 0]<br/>class = 5>, fillcolor="#cee6f8"] ;
320 -> 326 ;
327 [label=<pixel_662 &le; 0.029<br/>gini = 0.667<br/>samples = 3<br/>value = [1, 0, 1, 1, 0, 0, 0, 0, 0, 0]<br/>class = 0>, fillcolor="#ffffff"] ;
326 -> 327 ;
328 [label=<gini = 0.0<br/>samples = 1<br/>value = [0, 0, 0, 1, 0, 0, 0, 0, 0, 0]<br/>class = 3>, fillcolor="#39e55e"] ;
327 -> 328 ;
329 [label=<pixel_239 &le; 0.965<br/>gini = 0.5<br/>samples = 2<br/>value = [1, 0, 1, 0, 0, 0, 0, 0, 0, 0]<br/>class = 0>, fillcolor="#ffffff"] ;
327 -> 329 ;
330 [label=<gini = 0.0<br/>samples = 1<br/>value = [0, 0, 1, 0, 0, 0, 0, 0, 0, 0]<br/>class = 2>, fillcolor="#7be539"] ;
329 -> 330 ;
331 [label=<gini = 0.0<br/>samples = 1<br/>value = [1, 0, 0, 0, 0, 0, 0, 0, 0, 0]<br/>class = 0>, fillcolor="#e58139"] ;
329 -> 331 ;
332 [label=<gini = 0.0<br/>samples = 2<br/>value = [0, 0, 0, 0, 0, 2, 0, 0, 0, 0]<br/>class = 5>, fillcolor="#399de5"] ;
326 -> 332 ;
333 [label=<pixel_545 &le; 0.182<br/>gini = 0.764<br/>samples = 15<br/>value = [0, 4, 1, 4, 0, 2, 0, 4, 0, 0]<br/>class = 1>, fillcolor="#ffffff"] ;
319 -> 333 ;
334 [label=<pixel_129 &le; 0.004<br/>gini = 0.694<br/>samples = 11<br/>value = [0, 4, 1, 4, 0, 2, 0, 0, 0, 0]<br/>class = 1>, fillcolor="#ffffff"] ;
333 -> 334 ;
335 [label=<pixel_380 &le; 0.016<br/>gini = 0.571<br/>samples = 7<br/>value = [0, 0, 1, 4, 0, 2, 0, 0, 0, 0]<br/>class = 3>, fillcolor="#b0f5bf"] ;
334 -> 335 ;
336 [label=<pixel_238 &le; 0.671<br/>gini = 0.444<br/>samples = 3<br/>value = [0, 0, 1, 0, 0, 2, 0, 0, 0, 0]<br/>class = 5>, fillcolor="#9ccef2"] ;
335 -> 336 ;
337 [label=<gini = 0.0<br/>samples = 1<br/>value = [0, 0, 1, 0, 0, 0, 0, 0, 0, 0]<br/>class = 2>, fillcolor="#7be539"] ;
336 -> 337 ;
338 [label=<gini = 0.0<br/>samples = 2<br/>value = [0, 0, 0, 0, 0, 2, 0, 0, 0, 0]<br/>class = 5>, fillcolor="#399de5"] ;
336 -> 338 ;
339 [label=<gini = 0.0<br/>samples = 4<br/>value = [0, 0, 0, 4, 0, 0, 0, 0, 0, 0]<br/>class = 3>, fillcolor="#39e55e"] ;
335 -> 339 ;
340 [label=<gini = 0.0<br/>samples = 4<br/>value = [0, 4, 0, 0, 0, 0, 0, 0, 0, 0]<br/>class = 1>, fillcolor="#e2e539"] ;
334 -> 340 ;
341 [label=<gini = 0.0<br/>samples = 4<br/>value = [0, 0, 0, 0, 0, 0, 0, 4, 0, 0]<br/>class = 7>, fillcolor="#a339e5"] ;
333 -> 341 ;
342 [label=<pixel_622 &le; 0.049<br/>gini = 0.154<br/>samples = 49<br/>value = [45.0, 0.0, 1.0, 0.0, 0.0, 0.0, 2.0, 0.0, 0.0, 1.0]<br/>class = 0>, fillcolor="#e78c4a"] ;
272 -> 342 ;
343 [label=<pixel_442 &le; 0.176<br/>gini = 0.625<br/>samples = 4<br/>value = [0, 0, 1, 0, 0, 0, 2, 0, 0, 1]<br/>class = 6>, fillcolor="#bebdf6"] ;
342 -> 343 ;
344 [label=<pixel_267 &le; 0.098<br/>gini = 0.5<br/>samples = 2<br/>value = [0, 0, 1, 0, 0, 0, 0, 0, 0, 1]<br/>class = 2>, fillcolor="#ffffff"] ;
343 -> 344 ;
345 [label=<gini = 0.0<br/>samples = 1<br/>value = [0, 0, 0, 0, 0, 0, 0, 0, 0, 1]<br/>class = 9>, fillcolor="#e53958"] ;
344 -> 345 ;
346 [label=<gini = 0.0<br/>samples = 1<br/>value = [0, 0, 1, 0, 0, 0, 0, 0, 0, 0]<br/>class = 2>, fillcolor="#7be539"] ;
344 -> 346 ;
347 [label=<gini = 0.0<br/>samples = 2<br/>value = [0, 0, 0, 0, 0, 0, 2, 0, 0, 0]<br/>class = 6>, fillcolor="#3c39e5"] ;
343 -> 347 ;
348 [label=<gini = 0.0<br/>samples = 45<br/>value = [45, 0, 0, 0, 0, 0, 0, 0, 0, 0]<br/>class = 0>, fillcolor="#e58139"] ;
342 -> 348 ;
349 [label=<pixel_347 &le; 0.027<br/>gini = 0.393<br/>samples = 312<br/>value = [5, 7, 241, 12, 0, 15, 4, 23, 5, 0]<br/>class = 2>, fillcolor="#9beb6a"] ;
271 -> 349 ;
350 [label=<pixel_682 &le; 0.624<br/>gini = 0.234<br/>samples = 264<br/>value = [3, 3, 230, 6, 0, 1, 1, 20, 0, 0]<br/>class = 2>, fillcolor="#8de955"] ;
349 -> 350 ;
351 [label=<pixel_592 &le; 0.057<br/>gini = 0.17<br/>samples = 233<br/>value = [3, 3, 212, 5, 0, 1, 1, 8, 0, 0]<br/>class = 2>, fillcolor="#87e74b"] ;
350 -> 351 ;
352 [label=<pixel_596 &le; 0.827<br/>gini = 0.141<br/>samples = 229<br/>value = [0, 3, 212, 4, 0, 1, 1, 8, 0, 0]<br/>class = 2>, fillcolor="#85e748"] ;
351 -> 352 ;
353 [label=<pixel_679 &le; 0.994<br/>gini = 0.119<br/>samples = 225<br/>value = [0, 0, 211, 4, 0, 1, 1, 8, 0, 0]<br/>class = 2>, fillcolor="#84e746"] ;
352 -> 353 ;
354 [label=<pixel_321 &le; 0.21<br/>gini = 0.104<br/>samples = 223<br/>value = [0, 0, 211, 4, 0, 1, 1, 6, 0, 0]<br/>class = 2>, fillcolor="#82e644"] ;
353 -> 354 ;
355 [label=<pixel_349 &le; 0.116<br/>gini = 0.079<br/>samples = 220<br/>value = [0, 0, 211, 3, 0, 0, 0, 6, 0, 0]<br/>class = 2>, fillcolor="#81e641"] ;
354 -> 355 ;
356 [label=<pixel_674 &le; 0.208<br/>gini = 0.071<br/>samples = 219<br/>value = [0, 0, 211, 2, 0, 0, 0, 6, 0, 0]<br/>class = 2>, fillcolor="#80e640"] ;
355 -> 356 ;
357 [label=<pixel_371 &le; 0.953<br/>gini = 0.063<br/>samples = 218<br/>value = [0, 0, 211, 2, 0, 0, 0, 5, 0, 0]<br/>class = 2>, fillcolor="#7fe640"] ;
356 -> 357 ;
358 [label=<pixel_683 &le; 0.639<br/>gini = 0.054<br/>samples = 217<br/>value = [0, 0, 211, 2, 0, 0, 0, 4, 0, 0]<br/>class = 2>, fillcolor="#7fe63f"] ;
357 -> 358 ;
359 [label=<pixel_294 &le; 0.929<br/>gini = 0.029<br/>samples = 204<br/>value = [0, 0, 201, 2, 0, 0, 0, 1, 0, 0]<br/>class = 2>, fillcolor="#7de53c"] ;
358 -> 359 ;
360 [label=<pixel_153 &le; 0.029<br/>gini = 0.02<br/>samples = 202<br/>value = [0, 0, 200, 1, 0, 0, 0, 1, 0, 0]<br/>class = 2>, fillcolor="#7ce53b"] ;
359 -> 360 ;
361 [label=<pixel_151 &le; 0.531<br/>gini = 0.444<br/>samples = 3<br/>value = [0, 0, 2, 1, 0, 0, 0, 0, 0, 0]<br/>class = 2>, fillcolor="#bdf29c"] ;
360 -> 361 ;
362 [label=<gini = 0.0<br/>samples = 2<br/>value = [0, 0, 2, 0, 0, 0, 0, 0, 0, 0]<br/>class = 2>, fillcolor="#7be539"] ;
361 -> 362 ;
363 [label=<gini = 0.0<br/>samples = 1<br/>value = [0, 0, 0, 1, 0, 0, 0, 0, 0, 0]<br/>class = 3>, fillcolor="#39e55e"] ;
361 -> 363 ;
364 [label=<pixel_434 &le; 0.998<br/>gini = 0.01<br/>samples = 199<br/>value = [0, 0, 198, 0, 0, 0, 0, 1, 0, 0]<br/>class = 2>, fillcolor="#7ce53a"] ;
360 -> 364 ;
365 [label=<gini = 0.0<br/>samples = 193<br/>value = [0, 0, 193, 0, 0, 0, 0, 0, 0, 0]<br/>class = 2>, fillcolor="#7be539"] ;
364 -> 365 ;
366 [label=<pixel_183 &le; 0.878<br/>gini = 0.278<br/>samples = 6<br/>value = [0, 0, 5, 0, 0, 0, 0, 1, 0, 0]<br/>class = 2>, fillcolor="#95ea61"] ;
364 -> 366 ;
367 [label=<gini = 0.0<br/>samples = 1<br/>value = [0, 0, 0, 0, 0, 0, 0, 1, 0, 0]<br/>class = 7>, fillcolor="#a339e5"] ;
366 -> 367 ;
368 [label=<gini = 0.0<br/>samples = 5<br/>value = [0, 0, 5, 0, 0, 0, 0, 0, 0, 0]<br/>class = 2>, fillcolor="#7be539"] ;
366 -> 368 ;
369 [label=<pixel_656 &le; 0.337<br/>gini = 0.5<br/>samples = 2<br/>value = [0, 0, 1, 1, 0, 0, 0, 0, 0, 0]<br/>class = 2>, fillcolor="#ffffff"] ;
359 -> 369 ;
370 [label=<gini = 0.0<br/>samples = 1<br/>value = [0, 0, 1, 0, 0, 0, 0, 0, 0, 0]<br/>class = 2>, fillcolor="#7be539"] ;
369 -> 370 ;
371 [label=<gini = 0.0<br/>samples = 1<br/>value = [0, 0, 0, 1, 0, 0, 0, 0, 0, 0]<br/>class = 3>, fillcolor="#39e55e"] ;
369 -> 371 ;
372 [label=<pixel_267 &le; 0.1<br/>gini = 0.355<br/>samples = 13<br/>value = [0, 0, 10, 0, 0, 0, 0, 3, 0, 0]<br/>class = 2>, fillcolor="#a3ed74"] ;
358 -> 372 ;
373 [label=<gini = 0.0<br/>samples = 10<br/>value = [0, 0, 10, 0, 0, 0, 0, 0, 0, 0]<br/>class = 2>, fillcolor="#7be539"] ;
372 -> 373 ;
374 [label=<gini = 0.0<br/>samples = 3<br/>value = [0, 0, 0, 0, 0, 0, 0, 3, 0, 0]<br/>class = 7>, fillcolor="#a339e5"] ;
372 -> 374 ;
375 [label=<gini = 0.0<br/>samples = 1<br/>value = [0, 0, 0, 0, 0, 0, 0, 1, 0, 0]<br/>class = 7>, fillcolor="#a339e5"] ;
357 -> 375 ;
376 [label=<gini = 0.0<br/>samples = 1<br/>value = [0, 0, 0, 0, 0, 0, 0, 1, 0, 0]<br/>class = 7>, fillcolor="#a339e5"] ;
356 -> 376 ;
377 [label=<gini = 0.0<br/>samples = 1<br/>value = [0, 0, 0, 1, 0, 0, 0, 0, 0, 0]<br/>class = 3>, fillcolor="#39e55e"] ;
355 -> 377 ;
378 [label=<pixel_522 &le; 0.894<br/>gini = 0.667<br/>samples = 3<br/>value = [0, 0, 0, 1, 0, 1, 1, 0, 0, 0]<br/>class = 3>, fillcolor="#ffffff"] ;
354 -> 378 ;
379 [label=<gini = 0.0<br/>samples = 1<br/>value = [0, 0, 0, 0, 0, 0, 1, 0, 0, 0]<br/>class = 6>, fillcolor="#3c39e5"] ;
378 -> 379 ;
380 [label=<pixel_236 &le; 0.065<br/>gini = 0.5<br/>samples = 2<br/>value = [0, 0, 0, 1, 0, 1, 0, 0, 0, 0]<br/>class = 3>, fillcolor="#ffffff"] ;
378 -> 380 ;
381 [label=<gini = 0.0<br/>samples = 1<br/>value = [0, 0, 0, 1, 0, 0, 0, 0, 0, 0]<br/>class = 3>, fillcolor="#39e55e"] ;
380 -> 381 ;
382 [label=<gini = 0.0<br/>samples = 1<br/>value = [0, 0, 0, 0, 0, 1, 0, 0, 0, 0]<br/>class = 5>, fillcolor="#399de5"] ;
380 -> 382 ;
383 [label=<gini = 0.0<br/>samples = 2<br/>value = [0, 0, 0, 0, 0, 0, 0, 2, 0, 0]<br/>class = 7>, fillcolor="#a339e5"] ;
353 -> 383 ;
384 [label=<pixel_604 &le; 0.841<br/>gini = 0.375<br/>samples = 4<br/>value = [0, 3, 1, 0, 0, 0, 0, 0, 0, 0]<br/>class = 1>, fillcolor="#ecee7b"] ;
352 -> 384 ;
385 [label=<gini = 0.0<br/>samples = 1<br/>value = [0, 0, 1, 0, 0, 0, 0, 0, 0, 0]<br/>class = 2>, fillcolor="#7be539"] ;
384 -> 385 ;
386 [label=<gini = 0.0<br/>samples = 3<br/>value = [0, 3, 0, 0, 0, 0, 0, 0, 0, 0]<br/>class = 1>, fillcolor="#e2e539"] ;
384 -> 386 ;
387 [label=<pixel_264 &le; 0.139<br/>gini = 0.375<br/>samples = 4<br/>value = [3, 0, 0, 1, 0, 0, 0, 0, 0, 0]<br/>class = 0>, fillcolor="#eeab7b"] ;
351 -> 387 ;
388 [label=<gini = 0.0<br/>samples = 1<br/>value = [0, 0, 0, 1, 0, 0, 0, 0, 0, 0]<br/>class = 3>, fillcolor="#39e55e"] ;
387 -> 388 ;
389 [label=<gini = 0.0<br/>samples = 3<br/>value = [3, 0, 0, 0, 0, 0, 0, 0, 0, 0]<br/>class = 0>, fillcolor="#e58139"] ;
387 -> 389 ;
390 [label=<pixel_577 &le; 0.204<br/>gini = 0.512<br/>samples = 31<br/>value = [0, 0, 18, 1, 0, 0, 0, 12, 0, 0]<br/>class = 2>, fillcolor="#d5f7c0"] ;
350 -> 390 ;
391 [label=<pixel_570 &le; 0.673<br/>gini = 0.375<br/>samples = 16<br/>value = [0, 0, 4, 0, 0, 0, 0, 12, 0, 0]<br/>class = 7>, fillcolor="#c27bee"] ;
390 -> 391 ;
392 [label=<gini = 0.0<br/>samples = 12<br/>value = [0, 0, 0, 0, 0, 0, 0, 12, 0, 0]<br/>class = 7>, fillcolor="#a339e5"] ;
391 -> 392 ;
393 [label=<gini = 0.0<br/>samples = 4<br/>value = [0, 0, 4, 0, 0, 0, 0, 0, 0, 0]<br/>class = 2>, fillcolor="#7be539"] ;
391 -> 393 ;
394 [label=<pixel_350 &le; 0.222<br/>gini = 0.124<br/>samples = 15<br/>value = [0, 0, 14, 1, 0, 0, 0, 0, 0, 0]<br/>class = 2>, fillcolor="#84e747"] ;
390 -> 394 ;
395 [label=<gini = 0.0<br/>samples = 14<br/>value = [0, 0, 14, 0, 0, 0, 0, 0, 0, 0]<br/>class = 2>, fillcolor="#7be539"] ;
394 -> 395 ;
396 [label=<gini = 0.0<br/>samples = 1<br/>value = [0, 0, 0, 1, 0, 0, 0, 0, 0, 0]<br/>class = 3>, fillcolor="#39e55e"] ;
394 -> 396 ;
397 [label=<pixel_237 &le; 0.006<br/>gini = 0.819<br/>samples = 48<br/>value = [2, 4, 11, 6, 0, 14, 3, 3, 5, 0]<br/>class = 5>, fillcolor="#eff7fd"] ;
349 -> 397 ;
398 [label=<pixel_239 &le; 0.137<br/>gini = 0.54<br/>samples = 20<br/>value = [1, 0, 0, 3, 0, 13, 0, 1, 2, 0]<br/>class = 5>, fillcolor="#8bc5f0"] ;
397 -> 398 ;
399 [label=<pixel_574 &le; 0.955<br/>gini = 0.133<br/>samples = 14<br/>value = [1, 0, 0, 0, 0, 13, 0, 0, 0, 0]<br/>class = 5>, fillcolor="#48a5e7"] ;
398 -> 399 ;
400 [label=<gini = 0.0<br/>samples = 13<br/>value = [0, 0, 0, 0, 0, 13, 0, 0, 0, 0]<br/>class = 5>, fillcolor="#399de5"] ;
399 -> 400 ;
401 [label=<gini = 0.0<br/>samples = 1<br/>value = [1, 0, 0, 0, 0, 0, 0, 0, 0, 0]<br/>class = 0>, fillcolor="#e58139"] ;
399 -> 401 ;
402 [label=<pixel_207 &le; 0.255<br/>gini = 0.611<br/>samples = 6<br/>value = [0, 0, 0, 3, 0, 0, 0, 1, 2, 0]<br/>class = 3>, fillcolor="#cef8d7"] ;
398 -> 402 ;
403 [label=<gini = 0.0<br/>samples = 3<br/>value = [0, 0, 0, 3, 0, 0, 0, 0, 0, 0]<br/>class = 3>, fillcolor="#39e55e"] ;
402 -> 403 ;
404 [label=<pixel_236 &le; 0.504<br/>gini = 0.444<br/>samples = 3<br/>value = [0, 0, 0, 0, 0, 0, 0, 1, 2, 0]<br/>class = 8>, fillcolor="#f29ce0"] ;
402 -> 404 ;
405 [label=<gini = 0.0<br/>samples = 2<br/>value = [0, 0, 0, 0, 0, 0, 0, 0, 2, 0]<br/>class = 8>, fillcolor="#e539c0"] ;
404 -> 405 ;
406 [label=<gini = 0.0<br/>samples = 1<br/>value = [0, 0, 0, 0, 0, 0, 0, 1, 0, 0]<br/>class = 7>, fillcolor="#a339e5"] ;
404 -> 406 ;
407 [label=<pixel_208 &le; 0.949<br/>gini = 0.783<br/>samples = 28<br/>value = [1, 4, 11, 3, 0, 1, 3, 2, 3, 0]<br/>class = 2>, fillcolor="#d8f7c5"] ;
397 -> 407 ;
408 [label=<pixel_346 &le; 0.004<br/>gini = 0.837<br/>samples = 14<br/>value = [1, 3, 0, 2, 0, 1, 3, 2, 2, 0]<br/>class = 1>, fillcolor="#ffffff"] ;
407 -> 408 ;
409 [label=<gini = 0.0<br/>samples = 3<br/>value = [0, 0, 0, 0, 0, 0, 3, 0, 0, 0]<br/>class = 6>, fillcolor="#3c39e5"] ;
408 -> 409 ;
410 [label=<pixel_99 &le; 0.004<br/>gini = 0.81<br/>samples = 11<br/>value = [1, 3, 0, 2, 0, 1, 0, 2, 2, 0]<br/>class = 1>, fillcolor="#fcfce9"] ;
408 -> 410 ;
411 [label=<pixel_121 &le; 0.557<br/>gini = 0.781<br/>samples = 8<br/>value = [1, 0, 0, 2, 0, 1, 0, 2, 2, 0]<br/>class = 3>, fillcolor="#ffffff"] ;
410 -> 411 ;
412 [label=<pixel_603 &le; 0.004<br/>gini = 0.722<br/>samples = 6<br/>value = [1, 0, 0, 0, 0, 1, 0, 2, 2, 0]<br/>class = 7>, fillcolor="#ffffff"] ;
411 -> 412 ;
413 [label=<gini = 0.0<br/>samples = 2<br/>value = [0, 0, 0, 0, 0, 0, 0, 2, 0, 0]<br/>class = 7>, fillcolor="#a339e5"] ;
412 -> 413 ;
414 [label=<pixel_128 &le; 0.259<br/>gini = 0.625<br/>samples = 4<br/>value = [1, 0, 0, 0, 0, 1, 0, 0, 2, 0]<br/>class = 8>, fillcolor="#f6bdea"] ;
412 -> 414 ;
415 [label=<gini = 0.0<br/>samples = 2<br/>value = [0, 0, 0, 0, 0, 0, 0, 0, 2, 0]<br/>class = 8>, fillcolor="#e539c0"] ;
414 -> 415 ;
416 [label=<pixel_596 &le; 0.455<br/>gini = 0.5<br/>samples = 2<br/>value = [1, 0, 0, 0, 0, 1, 0, 0, 0, 0]<br/>class = 0>, fillcolor="#ffffff"] ;
414 -> 416 ;
417 [label=<gini = 0.0<br/>samples = 1<br/>value = [0, 0, 0, 0, 0, 1, 0, 0, 0, 0]<br/>class = 5>, fillcolor="#399de5"] ;
416 -> 417 ;
418 [label=<gini = 0.0<br/>samples = 1<br/>value = [1, 0, 0, 0, 0, 0, 0, 0, 0, 0]<br/>class = 0>, fillcolor="#e58139"] ;
416 -> 418 ;
419 [label=<gini = 0.0<br/>samples = 2<br/>value = [0, 0, 0, 2, 0, 0, 0, 0, 0, 0]<br/>class = 3>, fillcolor="#39e55e"] ;
411 -> 419 ;
420 [label=<gini = 0.0<br/>samples = 3<br/>value = [0, 3, 0, 0, 0, 0, 0, 0, 0, 0]<br/>class = 1>, fillcolor="#e2e539"] ;
410 -> 420 ;
421 [label=<pixel_319 &le; 0.506<br/>gini = 0.367<br/>samples = 14<br/>value = [0, 1, 11, 1, 0, 0, 0, 0, 1, 0]<br/>class = 2>, fillcolor="#99eb67"] ;
407 -> 421 ;
422 [label=<pixel_525 &le; 0.178<br/>gini = 0.667<br/>samples = 3<br/>value = [0, 1, 0, 1, 0, 0, 0, 0, 1, 0]<br/>class = 1>, fillcolor="#ffffff"] ;
421 -> 422 ;
423 [label=<pixel_316 &le; 0.276<br/>gini = 0.5<br/>samples = 2<br/>value = [0, 0, 0, 1, 0, 0, 0, 0, 1, 0]<br/>class = 3>, fillcolor="#ffffff"] ;
422 -> 423 ;
424 [label=<gini = 0.0<br/>samples = 1<br/>value = [0, 0, 0, 0, 0, 0, 0, 0, 1, 0]<br/>class = 8>, fillcolor="#e539c0"] ;
423 -> 424 ;
425 [label=<gini = 0.0<br/>samples = 1<br/>value = [0, 0, 0, 1, 0, 0, 0, 0, 0, 0]<br/>class = 3>, fillcolor="#39e55e"] ;
423 -> 425 ;
426 [label=<gini = 0.0<br/>samples = 1<br/>value = [0, 1, 0, 0, 0, 0, 0, 0, 0, 0]<br/>class = 1>, fillcolor="#e2e539"] ;
422 -> 426 ;
427 [label=<gini = 0.0<br/>samples = 11<br/>value = [0, 0, 11, 0, 0, 0, 0, 0, 0, 0]<br/>class = 2>, fillcolor="#7be539"] ;
421 -> 427 ;
428 [label=<pixel_211 &le; 0.21<br/>gini = 0.787<br/>samples = 1282<br/>value = [116.0, 0.0, 83.0, 6.0, 322.0, 28.0, 147.0, 148.0, 5.0<br/>427.0]<br/>class = 9>, fillcolor="#fce9ed"] ;
4 -> 428 ;
429 [label=<pixel_487 &le; 0.531<br/>gini = 0.722<br/>samples = 622<br/>value = [32.0, 0.0, 46.0, 0.0, 280.0, 15.0, 139.0, 68.0, 1.0<br/>41.0]<br/>class = 4>, fillcolor="#c5f7ee"] ;
428 -> 429 ;
430 [label=<pixel_514 &le; 0.002<br/>gini = 0.731<br/>samples = 268<br/>value = [27, 0, 12, 0, 28, 9, 120, 53, 0, 19]<br/>class = 6>, fillcolor="#c2c1f7"] ;
429 -> 430 ;
431 [label=<pixel_487 &le; 0.025<br/>gini = 0.461<br/>samples = 72<br/>value = [3, 0, 3, 0, 3, 4, 0, 52, 0, 7]<br/>class = 7>, fillcolor="#bf76ed"] ;
430 -> 431 ;
432 [label=<pixel_154 &le; 0.182<br/>gini = 0.216<br/>samples = 59<br/>value = [3, 0, 0, 0, 0, 4, 0, 52, 0, 0]<br/>class = 7>, fillcolor="#af52e8"] ;
431 -> 432 ;
433 [label=<pixel_570 &le; 0.49<br/>gini = 0.037<br/>samples = 53<br/>value = [0, 0, 0, 0, 0, 1, 0, 52, 0, 0]<br/>class = 7>, fillcolor="#a53de6"] ;
432 -> 433 ;
434 [label=<gini = 0.0<br/>samples = 52<br/>value = [0, 0, 0, 0, 0, 0, 0, 52, 0, 0]<br/>class = 7>, fillcolor="#a339e5"] ;
433 -> 434 ;
435 [label=<gini = 0.0<br/>samples = 1<br/>value = [0, 0, 0, 0, 0, 1, 0, 0, 0, 0]<br/>class = 5>, fillcolor="#399de5"] ;
433 -> 435 ;
436 [label=<pixel_414 &le; 0.333<br/>gini = 0.5<br/>samples = 6<br/>value = [3, 0, 0, 0, 0, 3, 0, 0, 0, 0]<br/>class = 0>, fillcolor="#ffffff"] ;
432 -> 436 ;
437 [label=<gini = 0.0<br/>samples = 3<br/>value = [0, 0, 0, 0, 0, 3, 0, 0, 0, 0]<br/>class = 5>, fillcolor="#399de5"] ;
436 -> 437 ;
438 [label=<gini = 0.0<br/>samples = 3<br/>value = [3, 0, 0, 0, 0, 0, 0, 0, 0, 0]<br/>class = 0>, fillcolor="#e58139"] ;
436 -> 438 ;
439 [label=<pixel_369 &le; 0.263<br/>gini = 0.604<br/>samples = 13<br/>value = [0, 0, 3, 0, 3, 0, 0, 0, 0, 7]<br/>class = 9>, fillcolor="#f5b0bc"] ;
431 -> 439 ;
440 [label=<pixel_179 &le; 0.033<br/>gini = 0.5<br/>samples = 6<br/>value = [0, 0, 3, 0, 3, 0, 0, 0, 0, 0]<br/>class = 2>, fillcolor="#ffffff"] ;
439 -> 440 ;
441 [label=<gini = 0.0<br/>samples = 3<br/>value = [0, 0, 0, 0, 3, 0, 0, 0, 0, 0]<br/>class = 4>, fillcolor="#39e5c5"] ;
440 -> 441 ;
442 [label=<gini = 0.0<br/>samples = 3<br/>value = [0, 0, 3, 0, 0, 0, 0, 0, 0, 0]<br/>class = 2>, fillcolor="#7be539"] ;
440 -> 442 ;
443 [label=<gini = 0.0<br/>samples = 7<br/>value = [0, 0, 0, 0, 0, 0, 0, 0, 0, 7]<br/>class = 9>, fillcolor="#e53958"] ;
439 -> 443 ;
444 [label=<pixel_463 &le; 0.057<br/>gini = 0.587<br/>samples = 196<br/>value = [24.0, 0.0, 9.0, 0.0, 25.0, 5.0, 120.0, 1.0, 0.0<br/>12.0]<br/>class = 6>, fillcolor="#9391f1"] ;
430 -> 444 ;
445 [label=<pixel_466 &le; 0.002<br/>gini = 0.753<br/>samples = 62<br/>value = [24, 0, 2, 0, 12, 4, 12, 0, 0, 8]<br/>class = 0>, fillcolor="#f9e1cf"] ;
444 -> 445 ;
446 [label=<pixel_571 &le; 0.965<br/>gini = 0.344<br/>samples = 30<br/>value = [24, 0, 0, 0, 1, 2, 3, 0, 0, 0]<br/>class = 0>, fillcolor="#eb9d65"] ;
445 -> 446 ;
447 [label=<pixel_465 &le; 0.337<br/>gini = 0.08<br/>samples = 24<br/>value = [23, 0, 0, 0, 1, 0, 0, 0, 0, 0]<br/>class = 0>, fillcolor="#e68642"] ;
446 -> 447 ;
448 [label=<gini = 0.0<br/>samples = 23<br/>value = [23, 0, 0, 0, 0, 0, 0, 0, 0, 0]<br/>class = 0>, fillcolor="#e58139"] ;
447 -> 448 ;
449 [label=<gini = 0.0<br/>samples = 1<br/>value = [0, 0, 0, 0, 1, 0, 0, 0, 0, 0]<br/>class = 4>, fillcolor="#39e5c5"] ;
447 -> 449 ;
450 [label=<pixel_573 &le; 0.325<br/>gini = 0.611<br/>samples = 6<br/>value = [1, 0, 0, 0, 0, 2, 3, 0, 0, 0]<br/>class = 6>, fillcolor="#cecef8"] ;
446 -> 450 ;
451 [label=<pixel_348 &le; 0.333<br/>gini = 0.444<br/>samples = 3<br/>value = [1, 0, 0, 0, 0, 2, 0, 0, 0, 0]<br/>class = 5>, fillcolor="#9ccef2"] ;
450 -> 451 ;
452 [label=<gini = 0.0<br/>samples = 1<br/>value = [1, 0, 0, 0, 0, 0, 0, 0, 0, 0]<br/>class = 0>, fillcolor="#e58139"] ;
451 -> 452 ;
453 [label=<gini = 0.0<br/>samples = 2<br/>value = [0, 0, 0, 0, 0, 2, 0, 0, 0, 0]<br/>class = 5>, fillcolor="#399de5"] ;
451 -> 453 ;
454 [label=<gini = 0.0<br/>samples = 3<br/>value = [0, 0, 0, 0, 0, 0, 3, 0, 0, 0]<br/>class = 6>, fillcolor="#3c39e5"] ;
450 -> 454 ;
455 [label=<pixel_400 &le; 0.078<br/>gini = 0.732<br/>samples = 32<br/>value = [0, 0, 2, 0, 11, 2, 9, 0, 0, 8]<br/>class = 4>, fillcolor="#eefdfa"] ;
445 -> 455 ;
456 [label=<pixel_149 &le; 0.133<br/>gini = 0.612<br/>samples = 14<br/>value = [0, 0, 2, 0, 2, 2, 0, 0, 0, 8]<br/>class = 9>, fillcolor="#f29cac"] ;
455 -> 456 ;
457 [label=<pixel_384 &le; 0.086<br/>gini = 0.198<br/>samples = 9<br/>value = [0, 0, 0, 0, 0, 1, 0, 0, 0, 8]<br/>class = 9>, fillcolor="#e8526d"] ;
456 -> 457 ;
458 [label=<gini = 0.0<br/>samples = 1<br/>value = [0, 0, 0, 0, 0, 1, 0, 0, 0, 0]<br/>class = 5>, fillcolor="#399de5"] ;
457 -> 458 ;
459 [label=<gini = 0.0<br/>samples = 8<br/>value = [0, 0, 0, 0, 0, 0, 0, 0, 0, 8]<br/>class = 9>, fillcolor="#e53958"] ;
457 -> 459 ;
460 [label=<pixel_455 &le; 0.008<br/>gini = 0.64<br/>samples = 5<br/>value = [0, 0, 2, 0, 2, 1, 0, 0, 0, 0]<br/>class = 2>, fillcolor="#ffffff"] ;
456 -> 460 ;
461 [label=<pixel_550 &le; 0.947<br/>gini = 0.444<br/>samples = 3<br/>value = [0, 0, 2, 0, 0, 1, 0, 0, 0, 0]<br/>class = 2>, fillcolor="#bdf29c"] ;
460 -> 461 ;
462 [label=<gini = 0.0<br/>samples = 1<br/>value = [0, 0, 0, 0, 0, 1, 0, 0, 0, 0]<br/>class = 5>, fillcolor="#399de5"] ;
461 -> 462 ;
463 [label=<gini = 0.0<br/>samples = 2<br/>value = [0, 0, 2, 0, 0, 0, 0, 0, 0, 0]<br/>class = 2>, fillcolor="#7be539"] ;
461 -> 463 ;
464 [label=<gini = 0.0<br/>samples = 2<br/>value = [0, 0, 0, 0, 2, 0, 0, 0, 0, 0]<br/>class = 4>, fillcolor="#39e5c5"] ;
460 -> 464 ;
465 [label=<pixel_121 &le; 0.004<br/>gini = 0.5<br/>samples = 18<br/>value = [0, 0, 0, 0, 9, 0, 9, 0, 0, 0]<br/>class = 4>, fillcolor="#ffffff"] ;
455 -> 465 ;
466 [label=<pixel_72 &le; 0.486<br/>gini = 0.18<br/>samples = 10<br/>value = [0, 0, 0, 0, 9, 0, 1, 0, 0, 0]<br/>class = 4>, fillcolor="#4fe8cb"] ;
465 -> 466 ;
467 [label=<gini = 0.0<br/>samples = 9<br/>value = [0, 0, 0, 0, 9, 0, 0, 0, 0, 0]<br/>class = 4>, fillcolor="#39e5c5"] ;
466 -> 467 ;
468 [label=<gini = 0.0<br/>samples = 1<br/>value = [0, 0, 0, 0, 0, 0, 1, 0, 0, 0]<br/>class = 6>, fillcolor="#3c39e5"] ;
466 -> 468 ;
469 [label=<gini = 0.0<br/>samples = 8<br/>value = [0, 0, 0, 0, 0, 0, 8, 0, 0, 0]<br/>class = 6>, fillcolor="#3c39e5"] ;
465 -> 469 ;
470 [label=<pixel_242 &le; 0.112<br/>gini = 0.337<br/>samples = 134<br/>value = [0, 0, 7, 0, 13, 1, 108, 1, 0, 4]<br/>class = 6>, fillcolor="#6664eb"] ;
444 -> 470 ;
471 [label=<pixel_627 &le; 0.314<br/>gini = 0.135<br/>samples = 112<br/>value = [0, 0, 2, 0, 5, 0, 104, 0, 0, 1]<br/>class = 6>, fillcolor="#4b48e7"] ;
470 -> 471 ;
472 [label=<pixel_295 &le; 0.588<br/>gini = 0.073<br/>samples = 107<br/>value = [0.0, 0.0, 1.0, 0.0, 2.0, 0.0, 103.0, 0.0, 0.0, 1.0]<br/>class = 6>, fillcolor="#4341e6"] ;
471 -> 472 ;
473 [label=<pixel_161 &le; 0.396<br/>gini = 0.037<br/>samples = 105<br/>value = [0, 0, 0, 0, 2, 0, 103, 0, 0, 0]<br/>class = 6>, fillcolor="#403de6"] ;
472 -> 473 ;
474 [label=<pixel_265 &le; 0.641<br/>gini = 0.019<br/>samples = 104<br/>value = [0, 0, 0, 0, 1, 0, 103, 0, 0, 0]<br/>class = 6>, fillcolor="#3e3be5"] ;
473 -> 474 ;
475 [label=<gini = 0.0<br/>samples = 103<br/>value = [0, 0, 0, 0, 0, 0, 103, 0, 0, 0]<br/>class = 6>, fillcolor="#3c39e5"] ;
474 -> 475 ;
476 [label=<gini = 0.0<br/>samples = 1<br/>value = [0, 0, 0, 0, 1, 0, 0, 0, 0, 0]<br/>class = 4>, fillcolor="#39e5c5"] ;
474 -> 476 ;
477 [label=<gini = 0.0<br/>samples = 1<br/>value = [0, 0, 0, 0, 1, 0, 0, 0, 0, 0]<br/>class = 4>, fillcolor="#39e5c5"] ;
473 -> 477 ;
478 [label=<pixel_517 &le; 0.845<br/>gini = 0.5<br/>samples = 2<br/>value = [0, 0, 1, 0, 0, 0, 0, 0, 0, 1]<br/>class = 2>, fillcolor="#ffffff"] ;
472 -> 478 ;
479 [label=<gini = 0.0<br/>samples = 1<br/>value = [0, 0, 0, 0, 0, 0, 0, 0, 0, 1]<br/>class = 9>, fillcolor="#e53958"] ;
478 -> 479 ;
480 [label=<gini = 0.0<br/>samples = 1<br/>value = [0, 0, 1, 0, 0, 0, 0, 0, 0, 0]<br/>class = 2>, fillcolor="#7be539"] ;
478 -> 480 ;
481 [label=<pixel_150 &le; 0.043<br/>gini = 0.56<br/>samples = 5<br/>value = [0, 0, 1, 0, 3, 0, 1, 0, 0, 0]<br/>class = 4>, fillcolor="#9cf2e2"] ;
471 -> 481 ;
482 [label=<gini = 0.0<br/>samples = 3<br/>value = [0, 0, 0, 0, 3, 0, 0, 0, 0, 0]<br/>class = 4>, fillcolor="#39e5c5"] ;
481 -> 482 ;
483 [label=<pixel_155 &le; 0.7<br/>gini = 0.5<br/>samples = 2<br/>value = [0, 0, 1, 0, 0, 0, 1, 0, 0, 0]<br/>class = 2>, fillcolor="#ffffff"] ;
481 -> 483 ;
484 [label=<gini = 0.0<br/>samples = 1<br/>value = [0, 0, 0, 0, 0, 0, 1, 0, 0, 0]<br/>class = 6>, fillcolor="#3c39e5"] ;
483 -> 484 ;
485 [label=<gini = 0.0<br/>samples = 1<br/>value = [0, 0, 1, 0, 0, 0, 0, 0, 0, 0]<br/>class = 2>, fillcolor="#7be539"] ;
483 -> 485 ;
486 [label=<pixel_400 &le; 0.539<br/>gini = 0.76<br/>samples = 22<br/>value = [0, 0, 5, 0, 8, 1, 4, 1, 0, 3]<br/>class = 4>, fillcolor="#dcfaf5"] ;
470 -> 486 ;
487 [label=<pixel_262 &le; 0.367<br/>gini = 0.694<br/>samples = 11<br/>value = [0, 0, 5, 0, 0, 1, 1, 1, 0, 3]<br/>class = 2>, fillcolor="#def8ce"] ;
486 -> 487 ;
488 [label=<pixel_600 &le; 0.786<br/>gini = 0.562<br/>samples = 8<br/>value = [0, 0, 5, 0, 0, 1, 1, 1, 0, 0]<br/>class = 2>, fillcolor="#b4f08e"] ;
487 -> 488 ;
489 [label=<gini = 0.0<br/>samples = 5<br/>value = [0, 0, 5, 0, 0, 0, 0, 0, 0, 0]<br/>class = 2>, fillcolor="#7be539"] ;
488 -> 489 ;
490 [label=<pixel_240 &le; 0.473<br/>gini = 0.667<br/>samples = 3<br/>value = [0, 0, 0, 0, 0, 1, 1, 1, 0, 0]<br/>class = 5>, fillcolor="#ffffff"] ;
488 -> 490 ;
491 [label=<pixel_427 &le; 0.043<br/>gini = 0.5<br/>samples = 2<br/>value = [0, 0, 0, 0, 0, 1, 1, 0, 0, 0]<br/>class = 5>, fillcolor="#ffffff"] ;
490 -> 491 ;
492 [label=<gini = 0.0<br/>samples = 1<br/>value = [0, 0, 0, 0, 0, 1, 0, 0, 0, 0]<br/>class = 5>, fillcolor="#399de5"] ;
491 -> 492 ;
493 [label=<gini = 0.0<br/>samples = 1<br/>value = [0, 0, 0, 0, 0, 0, 1, 0, 0, 0]<br/>class = 6>, fillcolor="#3c39e5"] ;
491 -> 493 ;
494 [label=<gini = 0.0<br/>samples = 1<br/>value = [0, 0, 0, 0, 0, 0, 0, 1, 0, 0]<br/>class = 7>, fillcolor="#a339e5"] ;
490 -> 494 ;
495 [label=<gini = 0.0<br/>samples = 3<br/>value = [0, 0, 0, 0, 0, 0, 0, 0, 0, 3]<br/>class = 9>, fillcolor="#e53958"] ;
487 -> 495 ;
496 [label=<pixel_378 &le; 0.229<br/>gini = 0.397<br/>samples = 11<br/>value = [0, 0, 0, 0, 8, 0, 3, 0, 0, 0]<br/>class = 4>, fillcolor="#83efdb"] ;
486 -> 496 ;
497 [label=<gini = 0.0<br/>samples = 8<br/>value = [0, 0, 0, 0, 8, 0, 0, 0, 0, 0]<br/>class = 4>, fillcolor="#39e5c5"] ;
496 -> 497 ;
498 [label=<gini = 0.0<br/>samples = 3<br/>value = [0, 0, 0, 0, 0, 0, 3, 0, 0, 0]<br/>class = 6>, fillcolor="#3c39e5"] ;
496 -> 498 ;
499 [label=<pixel_427 &le; 0.006<br/>gini = 0.475<br/>samples = 354<br/>value = [5, 0, 34, 0, 252, 6, 19, 15, 1, 22]<br/>class = 4>, fillcolor="#78edd7"] ;
429 -> 499 ;
500 [label=<pixel_127 &le; 0.025<br/>gini = 0.666<br/>samples = 62<br/>value = [0, 0, 30, 0, 13, 0, 1, 14, 0, 4]<br/>class = 2>, fillcolor="#d3f6bd"] ;
499 -> 500 ;
501 [label=<pixel_266 &le; 0.086<br/>gini = 0.702<br/>samples = 38<br/>value = [0, 0, 7, 0, 13, 0, 0, 14, 0, 4]<br/>class = 7>, fillcolor="#fbf7fe"] ;
500 -> 501 ;
502 [label=<pixel_183 &le; 0.429<br/>gini = 0.444<br/>samples = 18<br/>value = [0, 0, 1, 0, 13, 0, 0, 1, 0, 3]<br/>class = 4>, fillcolor="#7beed8"] ;
501 -> 502 ;
503 [label=<pixel_292 &le; 0.241<br/>gini = 0.133<br/>samples = 14<br/>value = [0, 0, 0, 0, 13, 0, 0, 0, 0, 1]<br/>class = 4>, fillcolor="#48e7c9"] ;
502 -> 503 ;
504 [label=<gini = 0.0<br/>samples = 13<br/>value = [0, 0, 0, 0, 13, 0, 0, 0, 0, 0]<br/>class = 4>, fillcolor="#39e5c5"] ;
503 -> 504 ;
505 [label=<gini = 0.0<br/>samples = 1<br/>value = [0, 0, 0, 0, 0, 0, 0, 0, 0, 1]<br/>class = 9>, fillcolor="#e53958"] ;
503 -> 505 ;
506 [label=<pixel_325 &le; 0.463<br/>gini = 0.625<br/>samples = 4<br/>value = [0, 0, 1, 0, 0, 0, 0, 1, 0, 2]<br/>class = 9>, fillcolor="#f6bdc7"] ;
502 -> 506 ;
507 [label=<pixel_262 &le; 0.251<br/>gini = 0.5<br/>samples = 2<br/>value = [0, 0, 1, 0, 0, 0, 0, 1, 0, 0]<br/>class = 2>, fillcolor="#ffffff"] ;
506 -> 507 ;
508 [label=<gini = 0.0<br/>samples = 1<br/>value = [0, 0, 0, 0, 0, 0, 0, 1, 0, 0]<br/>class = 7>, fillcolor="#a339e5"] ;
507 -> 508 ;
509 [label=<gini = 0.0<br/>samples = 1<br/>value = [0, 0, 1, 0, 0, 0, 0, 0, 0, 0]<br/>class = 2>, fillcolor="#7be539"] ;
507 -> 509 ;
510 [label=<gini = 0.0<br/>samples = 2<br/>value = [0, 0, 0, 0, 0, 0, 0, 0, 0, 2]<br/>class = 9>, fillcolor="#e53958"] ;
506 -> 510 ;
511 [label=<pixel_490 &le; 0.857<br/>gini = 0.485<br/>samples = 20<br/>value = [0, 0, 6, 0, 0, 0, 0, 13, 0, 1]<br/>class = 7>, fillcolor="#d19cf2"] ;
501 -> 511 ;
512 [label=<pixel_266 &le; 0.753<br/>gini = 0.449<br/>samples = 7<br/>value = [0, 0, 5, 0, 0, 0, 0, 1, 0, 1]<br/>class = 2>, fillcolor="#a7ee7b"] ;
511 -> 512 ;
513 [label=<gini = 0.0<br/>samples = 5<br/>value = [0, 0, 5, 0, 0, 0, 0, 0, 0, 0]<br/>class = 2>, fillcolor="#7be539"] ;
512 -> 513 ;
514 [label=<pixel_600 &le; 0.165<br/>gini = 0.5<br/>samples = 2<br/>value = [0, 0, 0, 0, 0, 0, 0, 1, 0, 1]<br/>class = 7>, fillcolor="#ffffff"] ;
512 -> 514 ;
515 [label=<gini = 0.0<br/>samples = 1<br/>value = [0, 0, 0, 0, 0, 0, 0, 0, 0, 1]<br/>class = 9>, fillcolor="#e53958"] ;
514 -> 515 ;
516 [label=<gini = 0.0<br/>samples = 1<br/>value = [0, 0, 0, 0, 0, 0, 0, 1, 0, 0]<br/>class = 7>, fillcolor="#a339e5"] ;
514 -> 516 ;
517 [label=<pixel_382 &le; 0.994<br/>gini = 0.142<br/>samples = 13<br/>value = [0, 0, 1, 0, 0, 0, 0, 12, 0, 0]<br/>class = 7>, fillcolor="#ab49e7"] ;
511 -> 517 ;
518 [label=<gini = 0.0<br/>samples = 12<br/>value = [0, 0, 0, 0, 0, 0, 0, 12, 0, 0]<br/>class = 7>, fillcolor="#a339e5"] ;
517 -> 518 ;
519 [label=<gini = 0.0<br/>samples = 1<br/>value = [0, 0, 1, 0, 0, 0, 0, 0, 0, 0]<br/>class = 2>, fillcolor="#7be539"] ;
517 -> 519 ;
520 [label=<pixel_413 &le; 0.675<br/>gini = 0.08<br/>samples = 24<br/>value = [0, 0, 23, 0, 0, 0, 1, 0, 0, 0]<br/>class = 2>, fillcolor="#81e642"] ;
500 -> 520 ;
521 [label=<gini = 0.0<br/>samples = 23<br/>value = [0, 0, 23, 0, 0, 0, 0, 0, 0, 0]<br/>class = 2>, fillcolor="#7be539"] ;
520 -> 521 ;
522 [label=<gini = 0.0<br/>samples = 1<br/>value = [0, 0, 0, 0, 0, 0, 1, 0, 0, 0]<br/>class = 6>, fillcolor="#3c39e5"] ;
520 -> 522 ;
523 [label=<pixel_294 &le; 0.037<br/>gini = 0.322<br/>samples = 292<br/>value = [5.0, 0.0, 4.0, 0.0, 239.0, 6.0, 18.0, 1.0, 1.0, 18.0]<br/>class = 4>, fillcolor="#5fead0"] ;
499 -> 523 ;
524 [label=<pixel_96 &le; 0.282<br/>gini = 0.209<br/>samples = 264<br/>value = [1, 0, 2, 0, 234, 0, 18, 0, 1, 8]<br/>class = 4>, fillcolor="#51e8cc"] ;
523 -> 524 ;
525 [label=<pixel_127 &le; 0.776<br/>gini = 0.156<br/>samples = 255<br/>value = [1, 0, 2, 0, 234, 0, 9, 0, 1, 8]<br/>class = 4>, fillcolor="#4ae7ca"] ;
524 -> 525 ;
526 [label=<pixel_182 &le; 0.686<br/>gini = 0.101<br/>samples = 247<br/>value = [1, 0, 0, 0, 234, 0, 3, 0, 1, 8]<br/>class = 4>, fillcolor="#44e6c8"] ;
525 -> 526 ;
527 [label=<pixel_359 &le; 0.984<br/>gini = 0.058<br/>samples = 236<br/>value = [1, 0, 0, 0, 229, 0, 3, 0, 0, 3]<br/>class = 4>, fillcolor="#3fe6c7"] ;
526 -> 527 ;
528 [label=<pixel_239 &le; 0.718<br/>gini = 0.034<br/>samples = 232<br/>value = [1, 0, 0, 0, 228, 0, 0, 0, 0, 3]<br/>class = 4>, fillcolor="#3ce5c6"] ;
527 -> 528 ;
529 [label=<pixel_413 &le; 0.998<br/>gini = 0.017<br/>samples = 230<br/>value = [1, 0, 0, 0, 228, 0, 0, 0, 0, 1]<br/>class = 4>, fillcolor="#3be5c6"] ;
528 -> 529 ;
530 [label=<pixel_484 &le; 0.049<br/>gini = 0.009<br/>samples = 229<br/>value = [0, 0, 0, 0, 228, 0, 0, 0, 0, 1]<br/>class = 4>, fillcolor="#3ae5c5"] ;
529 -> 530 ;
531 [label=<pixel_461 &le; 0.882<br/>gini = 0.5<br/>samples = 2<br/>value = [0, 0, 0, 0, 1, 0, 0, 0, 0, 1]<br/>class = 4>, fillcolor="#ffffff"] ;
530 -> 531 ;
532 [label=<gini = 0.0<br/>samples = 1<br/>value = [0, 0, 0, 0, 1, 0, 0, 0, 0, 0]<br/>class = 4>, fillcolor="#39e5c5"] ;
531 -> 532 ;
533 [label=<gini = 0.0<br/>samples = 1<br/>value = [0, 0, 0, 0, 0, 0, 0, 0, 0, 1]<br/>class = 9>, fillcolor="#e53958"] ;
531 -> 533 ;
534 [label=<gini = 0.0<br/>samples = 227<br/>value = [0, 0, 0, 0, 227, 0, 0, 0, 0, 0]<br/>class = 4>, fillcolor="#39e5c5"] ;
530 -> 534 ;
535 [label=<gini = 0.0<br/>samples = 1<br/>value = [1, 0, 0, 0, 0, 0, 0, 0, 0, 0]<br/>class = 0>, fillcolor="#e58139"] ;
529 -> 535 ;
536 [label=<gini = 0.0<br/>samples = 2<br/>value = [0, 0, 0, 0, 0, 0, 0, 0, 0, 2]<br/>class = 9>, fillcolor="#e53958"] ;
528 -> 536 ;
537 [label=<pixel_443 &le; 0.478<br/>gini = 0.375<br/>samples = 4<br/>value = [0, 0, 0, 0, 1, 0, 3, 0, 0, 0]<br/>class = 6>, fillcolor="#7d7bee"] ;
527 -> 537 ;
538 [label=<gini = 0.0<br/>samples = 1<br/>value = [0, 0, 0, 0, 1, 0, 0, 0, 0, 0]<br/>class = 4>, fillcolor="#39e5c5"] ;
537 -> 538 ;
539 [label=<gini = 0.0<br/>samples = 3<br/>value = [0, 0, 0, 0, 0, 0, 3, 0, 0, 0]<br/>class = 6>, fillcolor="#3c39e5"] ;
537 -> 539 ;
540 [label=<pixel_495 &le; 0.698<br/>gini = 0.579<br/>samples = 11<br/>value = [0, 0, 0, 0, 5, 0, 0, 0, 1, 5]<br/>class = 4>, fillcolor="#ffffff"] ;
526 -> 540 ;
541 [label=<pixel_215 &le; 0.898<br/>gini = 0.278<br/>samples = 6<br/>value = [0, 0, 0, 0, 0, 0, 0, 0, 1, 5]<br/>class = 9>, fillcolor="#ea6179"] ;
540 -> 541 ;
542 [label=<gini = 0.0<br/>samples = 5<br/>value = [0, 0, 0, 0, 0, 0, 0, 0, 0, 5]<br/>class = 9>, fillcolor="#e53958"] ;
541 -> 542 ;
543 [label=<gini = 0.0<br/>samples = 1<br/>value = [0, 0, 0, 0, 0, 0, 0, 0, 1, 0]<br/>class = 8>, fillcolor="#e539c0"] ;
541 -> 543 ;
544 [label=<gini = 0.0<br/>samples = 5<br/>value = [0, 0, 0, 0, 5, 0, 0, 0, 0, 0]<br/>class = 4>, fillcolor="#39e5c5"] ;
540 -> 544 ;
545 [label=<pixel_596 &le; 0.176<br/>gini = 0.375<br/>samples = 8<br/>value = [0, 0, 2, 0, 0, 0, 6, 0, 0, 0]<br/>class = 6>, fillcolor="#7d7bee"] ;
525 -> 545 ;
546 [label=<gini = 0.0<br/>samples = 6<br/>value = [0, 0, 0, 0, 0, 0, 6, 0, 0, 0]<br/>class = 6>, fillcolor="#3c39e5"] ;
545 -> 546 ;
547 [label=<gini = 0.0<br/>samples = 2<br/>value = [0, 0, 2, 0, 0, 0, 0, 0, 0, 0]<br/>class = 2>, fillcolor="#7be539"] ;
545 -> 547 ;
548 [label=<gini = 0.0<br/>samples = 9<br/>value = [0, 0, 0, 0, 0, 0, 9, 0, 0, 0]<br/>class = 6>, fillcolor="#3c39e5"] ;
524 -> 548 ;
549 [label=<pixel_383 &le; 0.392<br/>gini = 0.768<br/>samples = 28<br/>value = [4, 0, 2, 0, 5, 6, 0, 1, 0, 10]<br/>class = 9>, fillcolor="#fadbe1"] ;
523 -> 549 ;
550 [label=<pixel_248 &le; 0.002<br/>gini = 0.785<br/>samples = 20<br/>value = [4, 0, 2, 0, 5, 6, 0, 1, 0, 2]<br/>class = 5>, fillcolor="#f2f8fd"] ;
549 -> 550 ;
551 [label=<pixel_442 &le; 0.192<br/>gini = 0.745<br/>samples = 14<br/>value = [4, 0, 2, 0, 5, 0, 0, 1, 0, 2]<br/>class = 4>, fillcolor="#ebfcf9"] ;
550 -> 551 ;
552 [label=<pixel_548 &le; 0.096<br/>gini = 0.66<br/>samples = 10<br/>value = [0, 0, 2, 0, 5, 0, 0, 1, 0, 2]<br/>class = 4>, fillcolor="#b5f5e9"] ;
551 -> 552 ;
553 [label=<pixel_518 &le; 0.694<br/>gini = 0.64<br/>samples = 5<br/>value = [0, 0, 2, 0, 0, 0, 0, 1, 0, 2]<br/>class = 2>, fillcolor="#ffffff"] ;
552 -> 553 ;
554 [label=<gini = 0.0<br/>samples = 2<br/>value = [0, 0, 2, 0, 0, 0, 0, 0, 0, 0]<br/>class = 2>, fillcolor="#7be539"] ;
553 -> 554 ;
555 [label=<pixel_511 &le; 0.465<br/>gini = 0.444<br/>samples = 3<br/>value = [0, 0, 0, 0, 0, 0, 0, 1, 0, 2]<br/>class = 9>, fillcolor="#f29cac"] ;
553 -> 555 ;
556 [label=<gini = 0.0<br/>samples = 2<br/>value = [0, 0, 0, 0, 0, 0, 0, 0, 0, 2]<br/>class = 9>, fillcolor="#e53958"] ;
555 -> 556 ;
557 [label=<gini = 0.0<br/>samples = 1<br/>value = [0, 0, 0, 0, 0, 0, 0, 1, 0, 0]<br/>class = 7>, fillcolor="#a339e5"] ;
555 -> 557 ;
558 [label=<gini = 0.0<br/>samples = 5<br/>value = [0, 0, 0, 0, 5, 0, 0, 0, 0, 0]<br/>class = 4>, fillcolor="#39e5c5"] ;
552 -> 558 ;
559 [label=<gini = 0.0<br/>samples = 4<br/>value = [4, 0, 0, 0, 0, 0, 0, 0, 0, 0]<br/>class = 0>, fillcolor="#e58139"] ;
551 -> 559 ;
560 [label=<gini = 0.0<br/>samples = 6<br/>value = [0, 0, 0, 0, 0, 6, 0, 0, 0, 0]<br/>class = 5>, fillcolor="#399de5"] ;
550 -> 560 ;
561 [label=<gini = 0.0<br/>samples = 8<br/>value = [0, 0, 0, 0, 0, 0, 0, 0, 0, 8]<br/>class = 9>, fillcolor="#e53958"] ;
549 -> 561 ;
562 [label=<pixel_437 &le; 0.004<br/>gini = 0.619<br/>samples = 660<br/>value = [84.0, 0.0, 37.0, 6.0, 42.0, 13.0, 8.0, 80.0, 4.0<br/>386.0]<br/>class = 9>, fillcolor="#f197a7"] ;
428 -> 562 ;
563 [label=<pixel_489 &le; 0.035<br/>gini = 0.579<br/>samples = 132<br/>value = [82, 0, 5, 4, 1, 11, 1, 9, 0, 19]<br/>class = 0>, fillcolor="#f1b991"] ;
562 -> 563 ;
564 [label=<pixel_428 &le; 0.008<br/>gini = 0.302<br/>samples = 94<br/>value = [78.0, 0.0, 1.0, 3.0, 0.0, 0.0, 0.0, 5.0, 0.0, 7.0]<br/>class = 0>, fillcolor="#ea985d"] ;
563 -> 564 ;
565 [label=<pixel_296 &le; 0.427<br/>gini = 0.568<br/>samples = 9<br/>value = [1, 0, 0, 3, 0, 0, 0, 0, 0, 5]<br/>class = 9>, fillcolor="#f6bdc7"] ;
564 -> 565 ;
566 [label=<gini = 0.0<br/>samples = 5<br/>value = [0, 0, 0, 0, 0, 0, 0, 0, 0, 5]<br/>class = 9>, fillcolor="#e53958"] ;
565 -> 566 ;
567 [label=<pixel_500 &le; 0.496<br/>gini = 0.375<br/>samples = 4<br/>value = [1, 0, 0, 3, 0, 0, 0, 0, 0, 0]<br/>class = 3>, fillcolor="#7bee94"] ;
565 -> 567 ;
568 [label=<gini = 0.0<br/>samples = 3<br/>value = [0, 0, 0, 3, 0, 0, 0, 0, 0, 0]<br/>class = 3>, fillcolor="#39e55e"] ;
567 -> 568 ;
569 [label=<gini = 0.0<br/>samples = 1<br/>value = [1, 0, 0, 0, 0, 0, 0, 0, 0, 0]<br/>class = 0>, fillcolor="#e58139"] ;
567 -> 569 ;
570 [label=<pixel_715 &le; 0.161<br/>gini = 0.175<br/>samples = 85<br/>value = [77, 0, 1, 0, 0, 0, 0, 5, 0, 2]<br/>class = 0>, fillcolor="#e88e4d"] ;
564 -> 570 ;
571 [label=<pixel_718 &le; 0.4<br/>gini = 0.073<br/>samples = 80<br/>value = [77, 0, 1, 0, 0, 0, 0, 1, 0, 1]<br/>class = 0>, fillcolor="#e68641"] ;
570 -> 571 ;
572 [label=<pixel_557 &le; 0.131<br/>gini = 0.025<br/>samples = 78<br/>value = [77, 0, 1, 0, 0, 0, 0, 0, 0, 0]<br/>class = 0>, fillcolor="#e5833c"] ;
571 -> 572 ;
573 [label=<gini = 0.0<br/>samples = 77<br/>value = [77, 0, 0, 0, 0, 0, 0, 0, 0, 0]<br/>class = 0>, fillcolor="#e58139"] ;
572 -> 573 ;
574 [label=<gini = 0.0<br/>samples = 1<br/>value = [0, 0, 1, 0, 0, 0, 0, 0, 0, 0]<br/>class = 2>, fillcolor="#7be539"] ;
572 -> 574 ;
575 [label=<pixel_413 &le; 0.333<br/>gini = 0.5<br/>samples = 2<br/>value = [0, 0, 0, 0, 0, 0, 0, 1, 0, 1]<br/>class = 7>, fillcolor="#ffffff"] ;
571 -> 575 ;
576 [label=<gini = 0.0<br/>samples = 1<br/>value = [0, 0, 0, 0, 0, 0, 0, 1, 0, 0]<br/>class = 7>, fillcolor="#a339e5"] ;
575 -> 576 ;
577 [label=<gini = 0.0<br/>samples = 1<br/>value = [0, 0, 0, 0, 0, 0, 0, 0, 0, 1]<br/>class = 9>, fillcolor="#e53958"] ;
575 -> 577 ;
578 [label=<pixel_328 &le; 0.29<br/>gini = 0.32<br/>samples = 5<br/>value = [0, 0, 0, 0, 0, 0, 0, 4, 0, 1]<br/>class = 7>, fillcolor="#ba6aec"] ;
570 -> 578 ;
579 [label=<gini = 0.0<br/>samples = 1<br/>value = [0, 0, 0, 0, 0, 0, 0, 0, 0, 1]<br/>class = 9>, fillcolor="#e53958"] ;
578 -> 579 ;
580 [label=<gini = 0.0<br/>samples = 4<br/>value = [0, 0, 0, 0, 0, 0, 0, 4, 0, 0]<br/>class = 7>, fillcolor="#a339e5"] ;
578 -> 580 ;
581 [label=<pixel_318 &le; 0.084<br/>gini = 0.781<br/>samples = 38<br/>value = [4, 0, 4, 1, 1, 11, 1, 4, 0, 12]<br/>class = 9>, fillcolor="#fef8f9"] ;
563 -> 581 ;
582 [label=<pixel_574 &le; 0.006<br/>gini = 0.707<br/>samples = 25<br/>value = [2, 0, 4, 1, 0, 1, 1, 4, 0, 12]<br/>class = 9>, fillcolor="#f5b4bf"] ;
581 -> 582 ;
583 [label=<pixel_208 &le; 0.355<br/>gini = 0.347<br/>samples = 15<br/>value = [0, 0, 1, 1, 0, 1, 0, 0, 0, 12]<br/>class = 9>, fillcolor="#eb637c"] ;
582 -> 583 ;
584 [label=<pixel_571 &le; 0.025<br/>gini = 0.667<br/>samples = 3<br/>value = [0, 0, 1, 1, 0, 1, 0, 0, 0, 0]<br/>class = 2>, fillcolor="#ffffff"] ;
583 -> 584 ;
585 [label=<pixel_345 &le; 0.308<br/>gini = 0.5<br/>samples = 2<br/>value = [0, 0, 0, 1, 0, 1, 0, 0, 0, 0]<br/>class = 3>, fillcolor="#ffffff"] ;
584 -> 585 ;
586 [label=<gini = 0.0<br/>samples = 1<br/>value = [0, 0, 0, 1, 0, 0, 0, 0, 0, 0]<br/>class = 3>, fillcolor="#39e55e"] ;
585 -> 586 ;
587 [label=<gini = 0.0<br/>samples = 1<br/>value = [0, 0, 0, 0, 0, 1, 0, 0, 0, 0]<br/>class = 5>, fillcolor="#399de5"] ;
585 -> 587 ;
588 [label=<gini = 0.0<br/>samples = 1<br/>value = [0, 0, 1, 0, 0, 0, 0, 0, 0, 0]<br/>class = 2>, fillcolor="#7be539"] ;
584 -> 588 ;
589 [label=<gini = 0.0<br/>samples = 12<br/>value = [0, 0, 0, 0, 0, 0, 0, 0, 0, 12]<br/>class = 9>, fillcolor="#e53958"] ;
583 -> 589 ;
590 [label=<pixel_463 &le; 0.504<br/>gini = 0.7<br/>samples = 10<br/>value = [2, 0, 3, 0, 0, 0, 1, 4, 0, 0]<br/>class = 7>, fillcolor="#f2e3fb"] ;
582 -> 590 ;
591 [label=<pixel_426 &le; 0.141<br/>gini = 0.611<br/>samples = 6<br/>value = [2, 0, 3, 0, 0, 0, 1, 0, 0, 0]<br/>class = 2>, fillcolor="#def8ce"] ;
590 -> 591 ;
592 [label=<gini = 0.0<br/>samples = 3<br/>value = [0, 0, 3, 0, 0, 0, 0, 0, 0, 0]<br/>class = 2>, fillcolor="#7be539"] ;
591 -> 592 ;
593 [label=<pixel_555 &le; 0.233<br/>gini = 0.444<br/>samples = 3<br/>value = [2, 0, 0, 0, 0, 0, 1, 0, 0, 0]<br/>class = 0>, fillcolor="#f2c09c"] ;
591 -> 593 ;
594 [label=<gini = 0.0<br/>samples = 2<br/>value = [2, 0, 0, 0, 0, 0, 0, 0, 0, 0]<br/>class = 0>, fillcolor="#e58139"] ;
593 -> 594 ;
595 [label=<gini = 0.0<br/>samples = 1<br/>value = [0, 0, 0, 0, 0, 0, 1, 0, 0, 0]<br/>class = 6>, fillcolor="#3c39e5"] ;
593 -> 595 ;
596 [label=<gini = 0.0<br/>samples = 4<br/>value = [0, 0, 0, 0, 0, 0, 0, 4, 0, 0]<br/>class = 7>, fillcolor="#a339e5"] ;
590 -> 596 ;
597 [label=<pixel_272 &le; 0.682<br/>gini = 0.379<br/>samples = 13<br/>value = [2, 0, 0, 0, 1, 10, 0, 0, 0, 0]<br/>class = 5>, fillcolor="#6fb8ec"] ;
581 -> 597 ;
598 [label=<gini = 0.0<br/>samples = 10<br/>value = [0, 0, 0, 0, 0, 10, 0, 0, 0, 0]<br/>class = 5>, fillcolor="#399de5"] ;
597 -> 598 ;
599 [label=<pixel_598 &le; 0.045<br/>gini = 0.444<br/>samples = 3<br/>value = [2, 0, 0, 0, 1, 0, 0, 0, 0, 0]<br/>class = 0>, fillcolor="#f2c09c"] ;
597 -> 599 ;
600 [label=<gini = 0.0<br/>samples = 2<br/>value = [2, 0, 0, 0, 0, 0, 0, 0, 0, 0]<br/>class = 0>, fillcolor="#e58139"] ;
599 -> 600 ;
601 [label=<gini = 0.0<br/>samples = 1<br/>value = [0, 0, 0, 0, 1, 0, 0, 0, 0, 0]<br/>class = 4>, fillcolor="#39e5c5"] ;
599 -> 601 ;
602 [label=<pixel_427 &le; 0.002<br/>gini = 0.489<br/>samples = 528<br/>value = [2, 0, 32, 2, 41, 2, 7, 71, 4, 367]<br/>class = 9>, fillcolor="#ee7f93"] ;
562 -> 602 ;
603 [label=<pixel_538 &le; 0.363<br/>gini = 0.68<br/>samples = 121<br/>value = [0.0, 0.0, 31.0, 2.0, 3.0, 1.0, 2.0, 54.0, 0.0, 28.0]<br/>class = 7>, fillcolor="#e7ccf8"] ;
602 -> 603 ;
604 [label=<pixel_232 &le; 0.047<br/>gini = 0.58<br/>samples = 93<br/>value = [0.0, 0.0, 5.0, 1.0, 3.0, 1.0, 2.0, 53.0, 0.0, 28.0]<br/>class = 7>, fillcolor="#dcb3f5"] ;
603 -> 604 ;
605 [label=<pixel_546 &le; 0.825<br/>gini = 0.602<br/>samples = 40<br/>value = [0, 0, 3, 1, 3, 1, 2, 6, 0, 24]<br/>class = 9>, fillcolor="#f196a7"] ;
604 -> 605 ;
606 [label=<pixel_460 &le; 0.9<br/>gini = 0.316<br/>samples = 28<br/>value = [0, 0, 0, 1, 2, 1, 0, 1, 0, 23]<br/>class = 9>, fillcolor="#ea5f78"] ;
605 -> 606 ;
607 [label=<pixel_229 &le; 0.335<br/>gini = 0.08<br/>samples = 24<br/>value = [0, 0, 0, 0, 1, 0, 0, 0, 0, 23]<br/>class = 9>, fillcolor="#e6425f"] ;
606 -> 607 ;
608 [label=<gini = 0.0<br/>samples = 23<br/>value = [0, 0, 0, 0, 0, 0, 0, 0, 0, 23]<br/>class = 9>, fillcolor="#e53958"] ;
607 -> 608 ;
609 [label=<gini = 0.0<br/>samples = 1<br/>value = [0, 0, 0, 0, 1, 0, 0, 0, 0, 0]<br/>class = 4>, fillcolor="#39e5c5"] ;
607 -> 609 ;
610 [label=<pixel_549 &le; 0.416<br/>gini = 0.75<br/>samples = 4<br/>value = [0, 0, 0, 1, 1, 1, 0, 1, 0, 0]<br/>class = 3>, fillcolor="#ffffff"] ;
606 -> 610 ;
611 [label=<pixel_509 &le; 0.084<br/>gini = 0.667<br/>samples = 3<br/>value = [0, 0, 0, 0, 1, 1, 0, 1, 0, 0]<br/>class = 4>, fillcolor="#ffffff"] ;
610 -> 611 ;
612 [label=<pixel_212 &le; 0.775<br/>gini = 0.5<br/>samples = 2<br/>value = [0, 0, 0, 0, 0, 1, 0, 1, 0, 0]<br/>class = 5>, fillcolor="#ffffff"] ;
611 -> 612 ;
613 [label=<gini = 0.0<br/>samples = 1<br/>value = [0, 0, 0, 0, 0, 1, 0, 0, 0, 0]<br/>class = 5>, fillcolor="#399de5"] ;
612 -> 613 ;
614 [label=<gini = 0.0<br/>samples = 1<br/>value = [0, 0, 0, 0, 0, 0, 0, 1, 0, 0]<br/>class = 7>, fillcolor="#a339e5"] ;
612 -> 614 ;
615 [label=<gini = 0.0<br/>samples = 1<br/>value = [0, 0, 0, 0, 1, 0, 0, 0, 0, 0]<br/>class = 4>, fillcolor="#39e5c5"] ;
611 -> 615 ;
616 [label=<gini = 0.0<br/>samples = 1<br/>value = [0, 0, 0, 1, 0, 0, 0, 0, 0, 0]<br/>class = 3>, fillcolor="#39e55e"] ;
610 -> 616 ;
617 [label=<pixel_573 &le; 0.931<br/>gini = 0.722<br/>samples = 12<br/>value = [0, 0, 3, 0, 1, 0, 2, 5, 0, 1]<br/>class = 7>, fillcolor="#ebd3f9"] ;
605 -> 617 ;
618 [label=<pixel_181 &le; 0.553<br/>gini = 0.694<br/>samples = 7<br/>value = [0, 0, 3, 0, 1, 0, 2, 0, 0, 1]<br/>class = 2>, fillcolor="#e5fad7"] ;
617 -> 618 ;
619 [label=<pixel_269 &le; 0.433<br/>gini = 0.625<br/>samples = 4<br/>value = [0, 0, 0, 0, 1, 0, 2, 0, 0, 1]<br/>class = 6>, fillcolor="#bebdf6"] ;
618 -> 619 ;
620 [label=<gini = 0.0<br/>samples = 2<br/>value = [0, 0, 0, 0, 0, 0, 2, 0, 0, 0]<br/>class = 6>, fillcolor="#3c39e5"] ;
619 -> 620 ;
621 [label=<pixel_288 &le; 0.018<br/>gini = 0.5<br/>samples = 2<br/>value = [0, 0, 0, 0, 1, 0, 0, 0, 0, 1]<br/>class = 4>, fillcolor="#ffffff"] ;
619 -> 621 ;
622 [label=<gini = 0.0<br/>samples = 1<br/>value = [0, 0, 0, 0, 0, 0, 0, 0, 0, 1]<br/>class = 9>, fillcolor="#e53958"] ;
621 -> 622 ;
623 [label=<gini = 0.0<br/>samples = 1<br/>value = [0, 0, 0, 0, 1, 0, 0, 0, 0, 0]<br/>class = 4>, fillcolor="#39e5c5"] ;
621 -> 623 ;
624 [label=<gini = 0.0<br/>samples = 3<br/>value = [0, 0, 3, 0, 0, 0, 0, 0, 0, 0]<br/>class = 2>, fillcolor="#7be539"] ;
618 -> 624 ;
625 [label=<gini = 0.0<br/>samples = 5<br/>value = [0, 0, 0, 0, 0, 0, 0, 5, 0, 0]<br/>class = 7>, fillcolor="#a339e5"] ;
617 -> 625 ;
626 [label=<pixel_481 &le; 0.122<br/>gini = 0.206<br/>samples = 53<br/>value = [0, 0, 2, 0, 0, 0, 0, 47, 0, 4]<br/>class = 7>, fillcolor="#ae51e8"] ;
604 -> 626 ;
627 [label=<pixel_692 &le; 0.429<br/>gini = 0.041<br/>samples = 48<br/>value = [0, 0, 1, 0, 0, 0, 0, 47, 0, 0]<br/>class = 7>, fillcolor="#a53de6"] ;
626 -> 627 ;
628 [label=<gini = 0.0<br/>samples = 47<br/>value = [0, 0, 0, 0, 0, 0, 0, 47, 0, 0]<br/>class = 7>, fillcolor="#a339e5"] ;
627 -> 628 ;
629 [label=<gini = 0.0<br/>samples = 1<br/>value = [0, 0, 1, 0, 0, 0, 0, 0, 0, 0]<br/>class = 2>, fillcolor="#7be539"] ;
627 -> 629 ;
630 [label=<pixel_316 &le; 0.102<br/>gini = 0.32<br/>samples = 5<br/>value = [0, 0, 1, 0, 0, 0, 0, 0, 0, 4]<br/>class = 9>, fillcolor="#ec6a82"] ;
626 -> 630 ;
631 [label=<gini = 0.0<br/>samples = 1<br/>value = [0, 0, 1, 0, 0, 0, 0, 0, 0, 0]<br/>class = 2>, fillcolor="#7be539"] ;
630 -> 631 ;
632 [label=<gini = 0.0<br/>samples = 4<br/>value = [0, 0, 0, 0, 0, 0, 0, 0, 0, 4]<br/>class = 9>, fillcolor="#e53958"] ;
630 -> 632 ;
633 [label=<pixel_688 &le; 0.371<br/>gini = 0.135<br/>samples = 28<br/>value = [0, 0, 26, 1, 0, 0, 0, 1, 0, 0]<br/>class = 2>, fillcolor="#85e748"] ;
603 -> 633 ;
634 [label=<gini = 0.0<br/>samples = 26<br/>value = [0, 0, 26, 0, 0, 0, 0, 0, 0, 0]<br/>class = 2>, fillcolor="#7be539"] ;
633 -> 634 ;
635 [label=<pixel_523 &le; 0.498<br/>gini = 0.5<br/>samples = 2<br/>value = [0, 0, 0, 1, 0, 0, 0, 1, 0, 0]<br/>class = 3>, fillcolor="#ffffff"] ;
633 -> 635 ;
636 [label=<gini = 0.0<br/>samples = 1<br/>value = [0, 0, 0, 1, 0, 0, 0, 0, 0, 0]<br/>class = 3>, fillcolor="#39e55e"] ;
635 -> 636 ;
637 [label=<gini = 0.0<br/>samples = 1<br/>value = [0, 0, 0, 0, 0, 0, 0, 1, 0, 0]<br/>class = 7>, fillcolor="#a339e5"] ;
635 -> 637 ;
638 [label=<pixel_235 &le; 0.129<br/>gini = 0.295<br/>samples = 407<br/>value = [2, 0, 1, 0, 38, 1, 5, 17, 4, 339]<br/>class = 9>, fillcolor="#ea5d77"] ;
602 -> 638 ;
639 [label=<pixel_468 &le; 0.004<br/>gini = 0.507<br/>samples = 83<br/>value = [0, 0, 0, 0, 33, 1, 1, 0, 0, 48]<br/>class = 9>, fillcolor="#f7c4cd"] ;
638 -> 639 ;
640 [label=<pixel_375 &le; 0.276<br/>gini = 0.344<br/>samples = 56<br/>value = [0, 0, 0, 0, 11, 1, 0, 0, 0, 44]<br/>class = 9>, fillcolor="#ec6e85"] ;
639 -> 640 ;
641 [label=<pixel_156 &le; 0.133<br/>gini = 0.237<br/>samples = 51<br/>value = [0.0, 0.0, 0.0, 0.0, 7.0, 0.0, 0.0, 0.0, 0.0, 44.0]<br/>class = 9>, fillcolor="#e95873"] ;
640 -> 641 ;
642 [label=<pixel_212 &le; 0.055<br/>gini = 0.087<br/>samples = 44<br/>value = [0, 0, 0, 0, 2, 0, 0, 0, 0, 42]<br/>class = 9>, fillcolor="#e64260"] ;
641 -> 642 ;
643 [label=<gini = 0.0<br/>samples = 2<br/>value = [0, 0, 0, 0, 2, 0, 0, 0, 0, 0]<br/>class = 4>, fillcolor="#39e5c5"] ;
642 -> 643 ;
644 [label=<gini = 0.0<br/>samples = 42<br/>value = [0, 0, 0, 0, 0, 0, 0, 0, 0, 42]<br/>class = 9>, fillcolor="#e53958"] ;
642 -> 644 ;
645 [label=<pixel_575 &le; 0.284<br/>gini = 0.408<br/>samples = 7<br/>value = [0, 0, 0, 0, 5, 0, 0, 0, 0, 2]<br/>class = 4>, fillcolor="#88efdc"] ;
641 -> 645 ;
646 [label=<gini = 0.0<br/>samples = 5<br/>value = [0, 0, 0, 0, 5, 0, 0, 0, 0, 0]<br/>class = 4>, fillcolor="#39e5c5"] ;
645 -> 646 ;
647 [label=<gini = 0.0<br/>samples = 2<br/>value = [0, 0, 0, 0, 0, 0, 0, 0, 0, 2]<br/>class = 9>, fillcolor="#e53958"] ;
645 -> 647 ;
648 [label=<pixel_707 &le; 0.055<br/>gini = 0.32<br/>samples = 5<br/>value = [0, 0, 0, 0, 4, 1, 0, 0, 0, 0]<br/>class = 4>, fillcolor="#6aecd4"] ;
640 -> 648 ;
649 [label=<gini = 0.0<br/>samples = 4<br/>value = [0, 0, 0, 0, 4, 0, 0, 0, 0, 0]<br/>class = 4>, fillcolor="#39e5c5"] ;
648 -> 649 ;
650 [label=<gini = 0.0<br/>samples = 1<br/>value = [0, 0, 0, 0, 0, 1, 0, 0, 0, 0]<br/>class = 5>, fillcolor="#399de5"] ;
648 -> 650 ;
651 [label=<pixel_411 &le; 0.716<br/>gini = 0.313<br/>samples = 27<br/>value = [0, 0, 0, 0, 22, 0, 1, 0, 0, 4]<br/>class = 4>, fillcolor="#64ebd2"] ;
639 -> 651 ;
652 [label=<gini = 0.0<br/>samples = 22<br/>value = [0, 0, 0, 0, 22, 0, 0, 0, 0, 0]<br/>class = 4>, fillcolor="#39e5c5"] ;
651 -> 652 ;
653 [label=<pixel_413 &le; 0.471<br/>gini = 0.32<br/>samples = 5<br/>value = [0, 0, 0, 0, 0, 0, 1, 0, 0, 4]<br/>class = 9>, fillcolor="#ec6a82"] ;
651 -> 653 ;
654 [label=<gini = 0.0<br/>samples = 4<br/>value = [0, 0, 0, 0, 0, 0, 0, 0, 0, 4]<br/>class = 9>, fillcolor="#e53958"] ;
653 -> 654 ;
655 [label=<gini = 0.0<br/>samples = 1<br/>value = [0, 0, 0, 0, 0, 0, 1, 0, 0, 0]<br/>class = 6>, fillcolor="#3c39e5"] ;
653 -> 655 ;
656 [label=<pixel_485 &le; 0.025<br/>gini = 0.19<br/>samples = 324<br/>value = [2, 0, 1, 0, 5, 0, 4, 17, 4, 291]<br/>class = 9>, fillcolor="#e84e6a"] ;
638 -> 656 ;
657 [label=<pixel_512 &le; 0.031<br/>gini = 0.477<br/>samples = 16<br/>value = [2, 0, 0, 0, 0, 0, 0, 11, 0, 3]<br/>class = 7>, fillcolor="#c685ef"] ;
656 -> 657 ;
658 [label=<pixel_629 &le; 0.994<br/>gini = 0.153<br/>samples = 12<br/>value = [1, 0, 0, 0, 0, 0, 0, 11, 0, 0]<br/>class = 7>, fillcolor="#ab4be7"] ;
657 -> 658 ;
659 [label=<gini = 0.0<br/>samples = 11<br/>value = [0, 0, 0, 0, 0, 0, 0, 11, 0, 0]<br/>class = 7>, fillcolor="#a339e5"] ;
658 -> 659 ;
660 [label=<gini = 0.0<br/>samples = 1<br/>value = [1, 0, 0, 0, 0, 0, 0, 0, 0, 0]<br/>class = 0>, fillcolor="#e58139"] ;
658 -> 660 ;
661 [label=<pixel_515 &le; 0.125<br/>gini = 0.375<br/>samples = 4<br/>value = [1, 0, 0, 0, 0, 0, 0, 0, 0, 3]<br/>class = 9>, fillcolor="#ee7b90"] ;
657 -> 661 ;
662 [label=<gini = 0.0<br/>samples = 1<br/>value = [1, 0, 0, 0, 0, 0, 0, 0, 0, 0]<br/>class = 0>, fillcolor="#e58139"] ;
661 -> 662 ;
663 [label=<gini = 0.0<br/>samples = 3<br/>value = [0, 0, 0, 0, 0, 0, 0, 0, 0, 3]<br/>class = 9>, fillcolor="#e53958"] ;
661 -> 663 ;
664 [label=<pixel_498 &le; 0.855<br/>gini = 0.125<br/>samples = 308<br/>value = [0.0, 0.0, 1.0, 0.0, 5.0, 0.0, 4.0, 6.0, 4.0, 288.0]<br/>class = 9>, fillcolor="#e74663"] ;
656 -> 664 ;
665 [label=<pixel_248 &le; 0.075<br/>gini = 0.09<br/>samples = 302<br/>value = [0, 0, 1, 0, 5, 0, 0, 5, 3, 288]<br/>class = 9>, fillcolor="#e64260"] ;
664 -> 665 ;
666 [label=<pixel_442 &le; 0.994<br/>gini = 0.066<br/>samples = 298<br/>value = [0, 0, 1, 0, 3, 0, 0, 5, 1, 288]<br/>class = 9>, fillcolor="#e6405e"] ;
665 -> 666 ;
667 [label=<pixel_128 &le; 0.039<br/>gini = 0.053<br/>samples = 296<br/>value = [0, 0, 1, 0, 1, 0, 0, 5, 1, 288]<br/>class = 9>, fillcolor="#e63e5d"] ;
666 -> 667 ;
